
//network model 

#define		IMG_ROW  256
#define		IMG_COL  256
#define		CONV1_PATCHSIZE 9
#define		CONV2_PATCHSIZE 1
#define		CONV3_PATCHSIZE 5
#define		CONV1_FILTER	64
#define		CONV2_FILTER	32
#define		CONV2_CHANNEL	64
#define		CONV3_CHANNEL	32

#define		ROW				28
#define		COL				28
#define		INPUT_DIM		1
#define		NB_FILTER1		3
#define		NB_ROW			3
#define		NB_COL			3
#define		SUBSAMPLE_ROW	1
#define		SUBSAMPLE_COL	1
#define		POOLING_ROW		2
#define		POOLING_COL		2

#define		POOLING1_ROW	((ROW - NB_ROW)/SUBSAMPLE_ROW + 1)
#define		POOLING1_COL	((COL - NB_COL)/SUBSAMPLE_COL + 1)

#define		ROW2			(POOLING1_ROW/POOLING_ROW)
#define		COL2			(POOLING1_COL/POOLING_COL)

#define		NB_FILTER2		6
#define		INPUT_DIM2		NB_FILTER1

#define		POOLING2_ROW	((ROW2 - NB_ROW)/SUBSAMPLE_ROW + 1)
#define		POOLING2_COL	((COL2 - NB_COL)/SUBSAMPLE_COL + 1)

#define		DENSE_INPUT		((POOLING2_ROW/POOLING_ROW) * (POOLING2_COL/POOLING_COL) * NB_FILTER2)
#define		DENSE_OUTPUT	32
#define		DENSE2_OUTPUT	10
const float WEIGHT_CONV1[81][64] = {
	-0.088663,-0.043954,-0.035089,0.036043,-0.040478,0.079236,0.125195,0.096831,-0.050631,-0.040782,0.122319,-0.005160,0.047550,0.115196,0.163897,-0.043307,0.080297,-0.002239,0.002177,-0.054791,-0.097223,0.001113,0.001998,-0.001043,0.000859,0.000386,0.000636,-0.096232,-0.001000,-0.001267,-0.001540,-0.154512,0.064893,0.048813,-0.167730,-0.001057,-0.210490,0.098089,-0.013951,-0.080513,0.039394,-0.000643,-0.000446,-0.000378,-0.037368,-0.006039,0.000625,0.172841,0.084756,0.050251,-0.000013,0.066756,-0.094133,0.049170,-0.043397,-0.074913,0.089182,-0.002495,0.034533,-0.133609,0.062546,0.028962,0.034712,0.002784,
	0.055410,0.095339,-0.021296,-0.017754,0.049372,0.019853,-0.041655,-0.049027,0.085424,-0.128893,-0.133259,0.013759,0.028360,-0.107648,0.083083,0.047828,-0.040512,0.075656,-0.000576,0.253648,0.032107,-0.001120,0.000389,0.000748,0.000747,-0.001213,-0.000971,0.104847,-0.001820,0.016754,0.000256,0.190955,0.030158,-0.040069,0.111096,-0.000119,0.121321,-0.042174,0.140063,0.034130,-0.236282,0.000488,0.001081,-0.000957,0.043655,0.039495,0.000253,-0.141114,-0.125005,-0.092703,-0.000235,0.100110,0.101167,-0.033771,-0.125106,-0.060480,0.086579,-0.076098,0.081438,-0.038197,-0.084409,-0.068783,0.119241,0.013198,
	0.037197,0.122338,0.044676,0.012287,-0.136669,0.048437,0.038983,-0.037624,-0.067135,0.003781,0.025870,0.062362,-0.099690,-0.030569,0.044148,0.022598,0.043602,-0.073528,0.000537,-0.279600,-0.075592,0.000280,-0.001001,0.002989,-0.000258,-0.000904,-0.000008,-0.063151,-0.000032,0.263049,-0.000672,0.204732,0.066637,-0.024895,-0.010659,-0.001150,0.029366,0.112612,0.103627,0.020186,0.033454,0.000354,0.000563,-0.001128,0.061555,-0.011576,-0.000621,0.100637,0.081896,0.116971,-0.000302,-0.136820,0.076905,0.029063,0.156513,0.073235,0.005215,0.111996,-0.078275,0.001151,-0.059603,0.050199,-0.099076,0.032996,
	-0.119614,-0.052115,0.035148,0.088192,0.137867,-0.002480,-0.225987,0.107892,-0.018520,-0.044991,0.108247,0.101940,0.053056,-0.020864,0.080430,0.028203,0.058651,0.065104,0.000199,0.100394,-0.012425,0.000459,0.001064,0.001009,-0.001317,0.000034,-0.001700,0.039819,0.001019,0.139837,0.000447,0.026090,0.015556,0.109315,-0.191897,0.001095,-0.117138,-0.097932,0.057480,0.032504,-0.013991,0.000812,-0.000449,0.001804,-0.171617,0.006280,-0.001559,0.005747,0.063461,-0.013292,0.001170,-0.209199,0.029048,-0.028348,-0.119616,0.128267,-0.006474,-0.101375,-0.008096,0.019290,-0.211793,0.054761,0.071842,-0.009061,
	-0.123420,0.068812,0.047733,-0.042565,-0.138758,-0.030446,-0.093941,-0.000008,-0.339995,-0.173995,0.103310,0.053055,0.067120,-0.079977,0.063701,0.113065,-0.162221,-0.123693,0.001352,-0.121576,0.096892,0.000069,0.000762,0.001214,0.000430,-0.001887,-0.002440,-0.001436,0.002282,-0.113880,-0.000095,0.090184,-0.008409,0.026437,-0.056385,-0.000419,-0.027835,-0.009377,-0.035415,-0.056753,-0.050545,0.000657,-0.000413,-0.001219,-0.001041,-0.158928,0.000197,0.050704,-0.083759,-0.052602,0.000522,0.078356,-0.042452,0.151985,-0.037835,-0.043285,0.042601,0.120855,0.096333,0.047142,-0.037492,-0.047709,-0.111977,-0.037821,
	0.299634,0.057649,-0.036009,-0.084126,0.296552,0.043048,0.191912,-0.143638,0.059591,-0.088972,0.256396,-0.231314,-0.024951,-0.120524,-0.102284,0.046208,-0.024287,0.014345,0.000754,0.208323,-0.074241,-0.001217,0.000533,-0.003136,-0.000090,-0.000153,-0.000127,-0.151517,0.000523,-0.106581,-0.000036,-0.038669,-0.010151,-0.182373,0.057074,0.000661,-0.054205,0.103827,-0.146777,-0.227550,-0.015119,0.000417,0.000434,-0.000260,-0.045729,-0.135597,0.000041,0.221036,0.023403,0.134711,-0.000177,0.261733,-0.057870,-0.060725,-0.111580,-0.033572,0.016860,0.020787,-0.032731,0.031506,0.132046,-0.136785,0.073184,0.059055,
	-0.091182,0.086867,-0.098195,0.003404,0.172310,-0.020504,0.029383,-0.165968,0.021070,-0.076212,-0.059610,-0.225927,0.096333,-0.058285,-0.102792,0.033251,0.083629,0.032087,-0.000134,0.188324,-0.023912,0.000194,0.000049,-0.001727,0.001179,-0.001886,0.000587,0.039724,-0.000799,-0.065199,0.001133,-0.294720,-0.045359,0.069566,-0.112512,0.000687,0.038977,-0.314799,-0.002904,0.014013,-0.026975,-0.000860,0.000636,-0.000513,0.044170,-0.031758,0.000511,-0.147202,0.332477,0.130545,-0.000830,0.147010,-0.015473,-0.157683,0.107872,-0.099707,-0.013136,-0.080210,0.038960,0.063370,0.022254,-0.162511,0.110317,0.036658,
	-0.000136,-0.120012,-0.074646,0.095140,-0.130670,-0.066098,0.103775,-0.086689,0.021753,-0.135954,-0.106389,0.034350,0.122414,-0.147230,-0.114535,0.013018,0.065009,0.098317,-0.001166,0.058016,0.045456,0.000552,-0.000492,0.000220,-0.000252,0.001778,-0.000897,0.053064,-0.000015,0.077264,-0.000267,0.111717,-0.071090,0.046133,-0.054106,-0.000479,0.167225,0.041666,-0.038839,0.158164,0.014347,0.000190,0.000721,0.000500,0.077683,0.237961,-0.000818,-0.048427,-0.253929,0.018618,0.002615,-0.101702,0.013780,-0.081176,0.163472,-0.055231,-0.057322,-0.074377,0.077966,0.032303,-0.205609,-0.056206,-0.468844,-0.032938,
	-0.049024,0.023536,0.163313,-0.019552,-0.048650,0.120975,-0.249259,0.181128,-0.067537,0.142211,0.003959,0.130691,0.066721,-0.067705,-0.132032,-0.030189,-0.056594,0.030374,0.001258,-0.191217,-0.082555,0.000753,-0.000549,-0.001737,0.000372,0.000162,-0.000438,-0.074380,0.000500,0.017945,-0.001826,0.126688,0.008902,0.062952,0.039646,0.000773,0.115535,-0.007494,0.052474,-0.094652,0.080181,-0.000704,-0.000509,-0.001139,-0.020297,-0.104363,0.000600,0.020132,-0.108610,0.024348,-0.000917,-0.015684,0.061661,0.202824,0.028084,0.062892,-0.068414,-0.016653,-0.098001,0.006281,0.098337,0.097918,0.094143,0.007656,
	0.038421,-0.022271,0.057661,-0.096748,0.044596,0.007325,-0.043931,0.186813,0.010390,0.142402,-0.118126,-0.105051,-0.149690,-0.015621,-0.187601,-0.094285,-0.262410,0.061920,0.000593,0.070013,-0.138202,-0.000917,-0.000954,0.000636,0.000090,0.000236,-0.000805,0.013473,-0.001114,0.006911,0.001417,-0.085473,0.038365,-0.001114,0.286758,-0.000133,0.167376,0.005175,-0.066406,0.103963,0.220236,0.000829,-0.001974,-0.000295,-0.036446,-0.052519,0.001312,-0.120047,-0.078201,0.037256,0.000558,-0.101551,-0.047354,0.164077,0.137427,0.219011,-0.089087,0.170201,-0.173901,-0.037401,-0.010865,0.163666,-0.141634,-0.026547,
	-0.077268,-0.063779,-0.060684,0.180243,-0.031414,-0.122248,-0.367122,-0.031499,-0.115427,-0.029454,-0.047825,0.055357,0.006965,0.015726,-0.263865,0.008305,0.134644,-0.013877,-0.001747,0.011790,0.054376,-0.000744,-0.000807,0.001586,-0.000513,0.000080,0.000077,-0.030750,0.000054,-0.077271,0.000035,-0.113724,0.008252,-0.124015,-0.062649,-0.000224,0.053934,-0.445161,-0.020093,0.053353,0.067209,-0.001395,0.001109,0.001518,0.056331,0.064775,0.000226,-0.074230,0.096865,-0.167166,0.000247,0.203616,0.046855,-0.108492,-0.033054,-0.035849,-0.015612,-0.088481,0.013836,0.050429,0.131211,-0.129799,0.151635,-0.051363,
	0.027273,0.010644,0.023711,-0.080905,0.031237,-0.053232,0.315468,0.046268,-0.002728,0.130972,0.128217,-0.026555,-0.010117,0.141311,-0.004500,-0.012987,-0.187710,-0.150715,-0.001484,-0.149760,-0.028119,-0.000503,-0.002215,0.003409,-0.000017,0.001393,0.000096,0.026671,-0.000599,-0.243561,0.000111,-0.454564,0.057062,-0.079595,0.189626,-0.001184,-0.014359,0.078644,-0.463863,-0.066705,0.015866,-0.000601,-0.000247,-0.000756,-0.052590,-0.122367,0.001409,-0.058261,0.049886,0.129816,-0.000283,0.079131,-0.036578,-0.020854,-0.010310,-0.086500,-0.061792,0.040402,-0.095565,0.081019,0.272931,0.002729,-0.134121,-0.019686,
	0.457621,-0.278241,0.040779,-0.244441,0.146999,-0.057646,0.368496,0.180942,0.109868,0.117285,-0.044033,-0.016222,0.115327,0.110106,0.069321,-0.014565,0.115501,0.034635,0.000393,0.322736,-0.019562,0.001271,0.000637,0.001236,0.000466,0.000043,-0.001232,-0.108847,-0.000377,-0.304916,0.000257,-0.169588,0.021778,-0.085674,0.118620,-0.001682,0.051431,0.358739,-0.303152,0.021227,0.114374,-0.000821,0.000794,0.000979,-0.063966,0.100196,0.000193,0.099300,-0.163849,0.018520,0.000494,-0.182898,-0.043292,0.021502,-0.075868,-0.018982,-0.074612,0.043664,-0.064897,0.072322,0.285278,0.034146,0.118318,-0.043634,
	0.023582,-0.237199,0.019528,0.006857,-0.488314,-0.020267,0.035715,0.133411,0.260901,0.056850,-0.263549,-0.067338,0.070655,0.048104,0.124490,-0.017758,0.167358,0.047679,-0.000465,-0.443602,-0.042756,-0.000400,-0.000778,0.002352,-0.000250,0.001187,0.002631,0.123985,0.000093,0.001524,-0.000256,0.081688,0.021049,0.291101,0.054832,0.000888,0.087548,-0.003263,0.147923,0.316508,0.032060,-0.000558,0.001013,-0.000322,0.193136,0.222273,0.001489,-0.178027,-0.021932,0.028659,-0.001536,-0.069508,-0.050823,0.059488,0.215414,0.069578,-0.037674,-0.049819,-0.064992,0.011835,0.036214,0.068608,0.087421,-0.033690,
	-0.203639,-0.214184,-0.047095,0.130417,-0.447826,-0.024209,-0.229506,-0.008030,0.155816,0.102610,0.091526,0.295089,-0.059817,0.075433,0.142217,-0.087058,0.114185,0.137101,-0.001688,-0.171578,-0.095187,0.001889,0.000134,-0.001312,-0.000525,0.000841,-0.000412,0.241078,-0.000162,0.196912,-0.002037,0.389366,0.039814,0.078413,0.131966,-0.000720,-0.029643,0.149023,0.147360,-0.019804,-0.017130,-0.000405,0.000460,0.000332,-0.039137,0.128237,-0.001496,-0.118834,-0.201204,0.005449,-0.000122,-0.212725,-0.012540,0.071586,0.014254,0.414500,-0.068134,-0.101099,-0.124408,-0.047917,-0.174191,0.063347,0.015128,-0.040152,
	-0.077384,-0.096650,-0.002647,0.025669,-0.320528,-0.005455,-0.322234,-0.012184,-0.103017,0.136408,0.194789,0.249021,0.056025,0.091275,0.328788,-0.007289,0.042085,-0.093953,0.000223,-0.137264,0.064970,0.000873,-0.000730,0.000426,0.000630,-0.002049,-0.000721,-0.067726,-0.000771,-0.113701,-0.000089,0.342800,0.019147,-0.157998,0.064439,-0.002647,-0.008092,0.225281,0.109914,-0.097589,-0.010584,-0.000273,-0.000852,0.000434,-0.021272,-0.174122,0.000271,-0.028432,-0.218655,-0.196378,-0.000402,-0.212612,0.003573,0.137877,-0.284787,-0.027210,0.008849,0.180956,0.074614,-0.019763,0.106055,0.048673,0.028304,-0.030751,
	0.072884,0.104585,0.013081,-0.239431,0.222932,0.009972,0.116269,0.017653,0.017184,0.066823,0.201436,-0.045863,0.113495,0.087189,0.342024,0.033061,-0.289441,-0.063321,-0.001030,-0.307193,0.157827,-0.000572,0.000037,-0.002985,-0.000918,-0.000142,-0.001139,-0.067666,-0.001169,-0.200527,-0.001230,-0.330890,-0.016651,-0.186388,0.129139,-0.000359,-0.042589,0.066133,0.054949,0.075186,-0.281845,-0.000283,-0.000861,-0.001995,-0.075046,-0.112935,-0.000382,0.215105,0.464957,-0.169081,0.000315,0.006009,-0.027614,0.067624,-0.114600,-0.004039,0.034660,0.076355,0.162981,-0.006771,0.111467,0.077388,0.277979,-0.022468,
	0.066799,0.065994,-0.048433,0.044755,0.116257,0.023966,0.369677,-0.146024,0.038744,0.041533,-0.068880,-0.131784,-0.077530,0.234272,0.081833,-0.074576,0.198661,-0.084420,-0.000979,0.388787,-0.068126,-0.000627,0.000688,-0.002050,-0.001405,-0.000643,0.000569,0.152360,-0.000635,0.055014,0.000796,-0.177861,-0.000123,0.008791,-0.033469,-0.000684,-0.244255,-0.005277,-0.116604,-0.105931,-0.118457,0.001388,0.000463,0.000172,-0.055963,0.127665,0.000419,0.027912,0.064029,-0.032184,0.001155,0.093040,-0.048680,-0.175881,-0.065865,0.065420,-0.111532,0.165014,-0.143133,0.027429,-0.053125,-0.003125,0.042134,0.018602,
	-0.073151,-0.031174,-0.055471,-0.016099,0.030553,-0.008148,0.078230,0.026090,0.101821,-0.061906,0.094950,-0.001749,0.006337,-0.141502,0.213254,-0.045350,0.100532,-0.089359,-0.000646,-0.155676,-0.031784,0.000520,0.000289,-0.002187,0.000190,0.001684,-0.000451,0.138284,-0.000961,0.021108,-0.001231,0.062101,-0.055767,-0.005786,-0.093805,-0.000479,-0.190252,0.084567,0.100177,-0.075981,-0.181452,0.000232,0.000378,-0.000191,0.062649,0.037721,-0.001249,-0.146892,-0.104321,0.027016,0.001014,-0.230177,-0.006214,-0.132361,0.116923,0.122271,-0.018928,0.047641,-0.026222,-0.005319,-0.034706,-0.074526,-0.112789,0.012158,
	0.266531,-0.034654,-0.007512,-0.180143,-0.131955,-0.005119,-0.033943,-0.028548,-0.042675,-0.034822,0.000863,-0.101633,0.117517,-0.009131,-0.224935,0.098276,0.349872,0.012318,-0.002124,0.178745,0.149935,0.001399,-0.000213,-0.002835,-0.001163,-0.001295,-0.000253,-0.098771,0.000567,0.113788,0.001077,0.178659,-0.008447,0.311746,-0.395089,-0.000334,0.132675,-0.095231,0.132282,0.176375,0.045500,0.001070,-0.001241,-0.001357,0.016320,0.104600,-0.001264,-0.020233,-0.138291,-0.088726,-0.000610,0.098252,0.067410,-0.069819,0.002814,-0.107319,0.128198,-0.299896,0.172645,0.034788,-0.401101,-0.202455,-0.019550,0.015350,
	0.078364,0.022144,-0.001850,-0.119650,-0.095849,0.021226,-0.168809,0.028875,-0.052380,0.130243,0.117278,-0.196454,0.026647,-0.038059,-0.127258,0.011267,-0.067719,0.070644,-0.000320,-0.192515,0.018873,-0.001647,-0.001851,0.001541,-0.001544,0.000471,0.001458,-0.040509,-0.000404,0.128226,-0.000592,-0.105104,0.008783,0.177948,-0.045498,-0.000190,0.070906,0.029390,0.162886,0.024622,0.066112,-0.000651,-0.001356,0.000316,0.133113,-0.010523,-0.000458,0.094025,0.100322,0.156073,0.001052,0.097312,-0.026017,-0.150089,0.151324,-0.084196,0.038576,-0.104786,0.018621,0.007166,-0.174131,0.027066,-0.113862,0.034936,
	-0.289853,-0.243224,0.006325,0.156319,0.070506,-0.007966,-0.102281,0.050831,0.145680,0.087793,-0.106873,-0.210700,0.056599,0.017746,0.091477,0.014673,0.071371,0.142181,-0.001291,0.191714,0.047461,0.000677,-0.000152,0.002020,0.000136,-0.000447,-0.000552,0.218147,0.000747,-0.120326,-0.002130,-0.065031,-0.012964,-0.193776,-0.052516,-0.001907,-0.128497,0.040525,0.275596,-0.061207,0.255374,0.000125,-0.001598,0.001047,-0.023342,-0.084840,-0.001173,-0.001269,0.085743,-0.146161,-0.001444,-0.261449,-0.040223,-0.056207,-0.081934,-0.157028,0.011053,-0.118839,0.041154,-0.008718,-0.002180,-0.002153,-0.000709,-0.013303,
	-0.506913,-0.089236,0.083345,0.235655,-0.148559,0.088076,0.106198,0.020650,0.223891,-0.009106,-0.427620,-0.364765,0.023606,0.124513,0.129013,0.082314,0.166441,0.111469,0.000286,-0.014790,0.058278,-0.001439,0.000203,0.000934,0.000629,-0.000929,-0.001151,-0.008984,0.000737,-0.082057,-0.000312,-0.246371,0.030620,0.100116,0.079533,0.002235,-0.114980,-0.230328,0.284585,0.150027,0.126998,-0.000303,-0.002760,-0.001033,0.260799,-0.081067,-0.000046,-0.184988,0.352728,-0.163096,-0.000401,-0.050176,-0.085796,0.136361,0.082632,-0.742922,0.081188,0.023615,0.057075,-0.012048,-0.023290,0.051124,-0.139489,0.037946,
	0.044665,-0.027248,-0.035346,-0.016447,0.104788,0.014100,0.188211,-0.083282,0.018040,-0.084568,-0.227304,0.147086,-0.109638,0.100404,-0.030734,-0.035962,-0.139743,0.241416,0.000028,0.259684,-0.039791,-0.000056,-0.000815,-0.000115,-0.000552,0.000180,-0.000805,-0.228598,-0.000246,0.186340,0.001083,-0.226063,0.019870,0.092638,-0.098056,-0.001747,-0.145613,-0.114493,0.259225,-0.169778,0.078496,0.000743,-0.000886,0.001036,0.132200,0.016815,-0.000539,-0.060966,0.156616,-0.068849,0.000311,0.014348,-0.038291,0.033482,-0.151047,-0.043954,-0.020579,-0.154161,-0.069865,-0.060003,-0.014260,0.155023,0.176230,-0.003827,
	-0.062469,-0.093149,-0.058733,0.088610,-0.160681,-0.025872,0.238029,-0.023063,-0.125935,-0.021620,-0.243137,0.137102,-0.042334,-0.023617,-0.273712,-0.067134,0.027256,-0.209356,-0.000074,-0.037549,-0.010545,0.000697,-0.001277,-0.003163,0.000431,-0.001425,-0.001469,-0.020130,-0.002009,0.080315,0.000268,0.199568,-0.014467,0.220753,-0.141635,0.000068,-0.062827,0.143998,0.123904,-0.023900,0.194164,0.000587,-0.002181,-0.000716,-0.012500,0.149518,0.000276,-0.058673,-0.402123,-0.073666,-0.001640,0.088889,0.018853,0.014524,-0.087100,-0.011260,-0.016685,0.048736,-0.011844,-0.100472,-0.043212,0.146515,0.276248,-0.044384,
	-0.024425,-0.037410,-0.117147,0.030304,-0.122901,-0.077256,-0.340879,0.010069,0.104300,-0.050306,-0.063565,-0.030173,0.061614,-0.077924,-0.104090,-0.059380,0.087808,-0.166131,-0.000053,-0.284812,0.038830,-0.000933,0.000073,-0.000412,-0.001374,-0.000756,-0.001916,0.148007,0.000800,0.039803,-0.001172,0.200328,-0.054480,-0.132994,-0.126164,0.000102,0.037713,0.259708,-0.224770,0.103429,-0.011852,0.000518,0.000505,-0.001262,0.041589,0.216208,-0.000657,0.016928,-0.040445,0.200558,-0.001965,0.148392,0.024484,-0.083056,0.325381,0.108144,-0.010986,0.045636,0.036089,-0.090471,-0.101588,0.075885,-0.245644,-0.076137,
	-0.029073,0.078197,-0.049685,0.037085,-0.133791,0.032910,-0.071263,-0.123331,-0.033157,-0.056489,-0.055582,0.041727,0.005725,-0.046339,0.147210,0.013067,-0.043968,-0.015606,-0.000330,0.041026,0.041086,-0.002359,0.001856,-0.002121,-0.000053,0.001606,0.000584,-0.252105,0.000173,0.102643,0.000259,0.091041,0.008349,0.021534,0.030345,-0.001698,-0.030533,-0.069265,0.117865,0.056688,0.179192,-0.000754,-0.000605,0.000731,0.163345,-0.144408,-0.000897,-0.129048,0.060777,-0.012123,-0.001886,-0.047084,-0.041643,-0.053232,0.072706,-0.282683,0.035328,-0.352148,0.004728,0.006131,-0.001952,-0.105730,-0.162739,0.014980,
	-0.168848,0.125214,-0.010658,0.207049,0.024233,0.034313,0.061694,0.053707,-0.149669,-0.075944,0.032845,0.234634,0.026712,0.085302,0.107482,0.001823,-0.043444,0.019989,-0.000396,-0.192867,-0.017793,0.000678,-0.000580,-0.000569,-0.001254,-0.000509,0.000866,-0.005166,0.000119,-0.069083,-0.002996,0.206605,-0.047145,-0.258345,0.045077,-0.001118,0.002243,0.198655,-0.132201,-0.163268,-0.169635,-0.001887,-0.000419,0.000555,-0.130219,0.008106,-0.000321,0.350386,0.175992,-0.165133,-0.001386,0.047672,-0.085452,-0.089405,-0.115719,-0.125267,0.068221,0.245844,0.054056,-0.018348,0.252813,-0.067488,0.199884,0.043610,
	0.206862,0.111898,0.088404,-0.308482,0.235961,0.097762,0.434134,-0.032472,0.164089,0.094752,-0.144887,0.122486,0.011556,0.138830,-0.159996,0.062105,-0.151806,0.067589,-0.000861,0.423741,0.048312,-0.002159,0.002137,-0.000284,-0.001059,-0.000453,0.000043,-0.071010,0.002031,-0.067399,0.002098,0.029972,0.036334,0.078087,0.331144,-0.000355,0.080747,-0.206084,0.019542,0.084767,-0.115480,-0.000803,-0.001890,0.001024,-0.078496,-0.057048,0.000225,-0.283083,0.108212,0.038115,-0.000484,0.225231,0.056346,-0.030837,-0.315517,-0.026224,0.111530,-0.109400,0.064726,0.030326,0.188835,-0.199624,0.029754,0.068851,
	-0.253670,0.349820,0.068287,0.298525,-0.021007,0.134380,0.018765,-0.039362,-0.059988,0.195429,-0.064547,0.160997,-0.133391,-0.064842,-0.050100,-0.022566,0.061979,-0.071917,0.001456,-0.148593,-0.064880,0.000637,0.000380,0.001023,-0.000988,-0.000554,0.001631,-0.062740,-0.001271,0.015077,0.000717,0.212387,0.020698,-0.247502,0.273227,-0.000180,0.057045,-0.168584,0.184952,-0.173474,-0.193209,0.000849,0.000887,-0.000160,-0.022618,0.080202,0.001118,0.222461,-0.059797,0.237387,0.001716,0.150613,0.019951,-0.172810,0.198865,0.080962,0.013530,0.238396,-0.077469,-0.009940,0.218230,0.047434,0.117699,0.098810,
	-0.384997,0.243036,0.020970,0.517179,0.189050,0.052046,-0.516870,-0.088298,-0.015551,0.131150,0.035593,0.287509,-0.122633,-0.057418,-0.087015,-0.016408,0.017748,-0.012370,0.001078,-0.024422,-0.016817,-0.000888,-0.000255,0.002309,-0.002224,0.001332,-0.001782,0.177227,0.001740,0.060801,0.001821,0.326894,-0.006391,-0.462785,-0.205586,0.001998,-0.075644,0.088905,-0.292929,-0.223745,-0.226587,0.001860,0.001194,-0.000374,-0.327963,0.027756,-0.000209,0.136512,-0.215985,-0.079417,0.000148,-0.051011,0.032319,-0.139449,-0.099830,0.680226,-0.016082,0.127545,-0.045566,-0.026144,-0.077534,-0.011952,-0.094762,0.031302,
	-0.126019,0.213508,0.262050,0.008161,0.508572,0.235545,-0.185862,-0.137657,-0.468728,0.011391,0.162763,0.065775,-0.053669,-0.005594,-0.206893,0.228171,-0.034784,-0.104866,0.001152,0.212944,0.150391,-0.000349,-0.000284,0.001131,0.000830,0.002065,-0.001545,-0.067052,-0.000977,-0.025707,-0.001795,-0.138610,0.093983,0.090576,0.007871,0.000720,0.015597,0.044428,-0.595506,-0.029165,-0.140110,-0.001144,0.001241,0.001033,-0.258889,-0.166139,-0.000439,0.119351,-0.020274,-0.022930,-0.000814,0.008852,-0.034079,0.387916,0.111345,0.135610,0.188051,0.203472,0.138357,0.071654,-0.126307,-0.020982,-0.359524,0.124201,
	0.725788,0.371207,0.119382,-0.311291,0.637294,0.182882,0.023196,-0.113599,0.008157,-0.142038,0.433271,-0.049968,-0.093833,-0.048823,0.071161,0.105526,-0.441993,0.175825,0.000213,0.663765,0.008327,-0.000985,-0.000371,0.000760,-0.001650,-0.001100,0.000676,-0.310792,-0.001242,-0.092906,0.000189,-0.278895,0.036466,0.056545,0.026922,0.001949,0.153545,-0.301100,-0.602495,-0.109666,-0.043413,0.000506,-0.001255,-0.001157,-0.207994,-0.316432,0.000277,0.306002,0.248043,0.105946,0.000604,0.028483,-0.038873,0.049778,-0.422213,0.086184,0.092608,-0.093578,0.006478,0.038436,0.203915,0.169666,0.082802,0.150650,
	0.095884,0.121928,0.042141,-0.123079,0.215771,0.096931,0.411488,0.013083,0.011156,-0.053267,-0.035260,-0.167037,-0.025312,0.020849,-0.234763,-0.002926,-0.180681,-0.129947,-0.001187,0.011664,-0.050222,0.000985,0.000088,-0.001643,-0.000010,-0.000545,0.001739,0.103869,-0.001119,-0.173648,0.000574,-0.309218,-0.016738,0.282428,0.212127,-0.001410,0.096325,-0.474157,-0.188790,0.125172,0.048256,0.001845,-0.000921,-0.000911,-0.120682,-0.096221,-0.000338,0.067600,0.254992,0.023792,0.000297,0.050584,0.015597,-0.069709,0.056584,-0.050140,0.032322,0.014412,-0.032843,-0.036048,0.173328,0.143259,0.140397,0.079782,
	-0.044873,-0.154921,-0.064057,0.232146,0.011278,-0.050401,-0.163253,0.022561,-0.000601,-0.053505,0.079954,-0.112962,0.040834,0.119392,-0.262320,-0.079456,0.301953,-0.047035,-0.000768,-0.204332,-0.047380,-0.001515,-0.001391,-0.002710,0.000284,0.002310,-0.000082,0.428501,0.000695,-0.044257,-0.001168,-0.000347,-0.066264,-0.210250,0.006659,-0.000183,0.144579,0.144451,-0.102010,-0.112738,-0.020221,-0.002410,0.000614,-0.000158,-0.110355,0.197050,-0.001403,0.033336,-0.477283,0.191751,0.001148,-0.231542,0.060878,-0.160602,0.444200,0.357711,-0.076844,0.261670,-0.100534,-0.023669,-0.055733,0.026021,-0.505499,-0.027735,
	-0.011252,0.018840,-0.047907,-0.034601,0.188221,-0.048322,-0.046247,0.132072,0.000549,0.037627,0.321603,0.032326,0.117582,0.036202,-0.013499,-0.038855,-0.163702,0.152627,-0.000322,0.000490,0.013195,-0.000140,-0.000874,-0.001536,-0.000981,-0.000335,-0.000063,-0.009982,-0.000880,-0.130376,-0.000863,-0.149932,-0.021751,0.099852,0.073457,-0.001137,0.098420,-0.212603,0.026657,0.102706,-0.025582,0.000302,-0.000443,-0.000374,-0.122209,-0.092363,-0.000676,-0.009528,0.025928,-0.005929,-0.000824,-0.019816,-0.055689,0.052771,-0.328017,-0.041319,-0.006525,0.059435,-0.030013,-0.015906,0.085427,-0.000333,0.323060,-0.053834,
	-0.029559,-0.083511,0.054826,-0.053407,-0.154593,-0.099050,-0.246755,0.136616,-0.243106,-0.116487,-0.027880,-0.194685,0.068973,0.013776,0.025579,0.045778,0.102702,0.075385,-0.000053,-0.108482,0.084960,0.002611,-0.001334,-0.002255,-0.000259,-0.001816,0.000743,-0.088106,0.000715,0.110209,-0.002416,-0.060726,-0.020360,0.028138,-0.222510,-0.000128,0.139682,0.217306,0.016032,-0.085243,0.095962,0.000016,0.000607,-0.000079,-0.030919,0.028924,0.000614,0.133212,-0.153917,0.058532,-0.001088,-0.114851,-0.100094,0.211686,0.029111,0.271819,0.018553,0.056774,0.081073,0.038312,-0.276244,0.066841,-0.094888,-0.067803,
	0.221171,-0.305500,0.074022,0.102257,-0.040722,-0.007481,-0.240479,0.046251,0.326109,0.072872,0.069243,-0.194034,0.090254,-0.052864,-0.200416,0.042214,0.045450,0.117248,0.000132,0.208924,0.039796,-0.000630,-0.000195,-0.000714,0.001939,0.000359,0.000155,0.223233,0.000074,0.020617,0.000423,-0.210592,0.003344,0.131256,0.012361,-0.000754,-0.118762,-0.393682,0.202586,0.495014,0.073629,-0.001603,0.000390,-0.001163,0.331500,0.122155,-0.002202,-0.726008,0.101683,0.040732,0.000756,0.040155,-0.007525,-0.002661,0.015314,-0.238902,0.022786,-0.036710,0.053379,0.078073,-0.093995,-0.117987,0.182979,0.002182,
	-0.384532,-0.114622,0.215124,0.216417,-0.103783,0.198469,0.509677,0.058867,0.216527,0.152819,-0.027636,-0.138909,-0.048477,-0.122573,0.201899,0.066883,0.224828,-0.191048,-0.001012,-0.142819,0.004933,-0.000569,-0.000128,-0.000015,0.000828,-0.000904,-0.000685,0.170024,-0.000791,-0.171593,-0.001752,-0.044426,0.014848,0.298700,-0.236758,-0.000184,-0.182270,0.166862,0.255043,-0.034106,0.023215,0.000656,-0.001247,-0.000032,0.195545,-0.170389,0.000126,0.085357,0.029320,0.075571,-0.002661,0.162327,-0.058458,0.054675,0.239723,-0.538795,0.026320,0.071752,0.016870,0.085536,-0.348041,0.089756,0.021064,0.131035,
	-0.053510,-0.118336,0.257806,-0.006494,-0.206802,0.147589,-0.116033,0.000798,-0.226046,0.120734,-0.073631,0.288375,-0.044286,-0.031724,0.092999,0.154676,-0.121521,-0.014827,0.000084,-0.348371,0.160514,0.001356,0.000388,0.000990,-0.000565,-0.002102,-0.000828,-0.242571,0.000771,0.132341,0.001044,0.090124,0.024314,-0.173173,-0.358786,-0.000459,0.022942,0.491448,0.108170,-0.405785,-0.113308,0.000245,0.000810,0.001186,0.046738,-0.062581,0.000977,0.476310,-0.413251,-0.128564,0.000140,0.086257,0.040348,0.355839,-0.237242,0.213929,0.058499,-0.131313,0.127100,0.098844,-0.187358,0.027905,-0.102484,0.056098,
	0.109559,-0.350276,0.427163,-0.250758,-0.004838,0.230910,-0.164235,-0.012750,-0.916803,0.120671,0.002822,0.175621,-0.009945,-0.155810,-0.112809,0.311943,0.010337,-0.229706,-0.000845,-0.503417,0.308998,0.001492,-0.000314,0.000944,-0.000806,0.000131,0.000210,-0.232490,0.001033,0.394946,-0.000058,-0.221827,0.134019,0.065426,-0.051801,0.000116,0.095031,0.251793,0.274182,-0.092724,0.076340,-0.000289,-0.000065,-0.000915,0.161629,0.232778,0.000722,-0.199166,-0.220180,0.096567,-0.001403,0.159956,0.070226,0.908013,0.310929,0.079533,0.206849,-0.181145,0.254044,0.125738,-0.328890,0.075244,0.310572,0.056191,
	0.372574,-0.007749,0.182162,-0.204488,-0.080540,0.137338,-0.414691,-0.010349,-0.176639,-0.005608,0.199476,0.058869,-0.081492,-0.335036,0.392647,0.124165,-0.017383,0.116267,-0.000485,0.375608,0.131511,-0.001354,-0.000371,0.001107,-0.000306,0.000529,-0.000744,0.144878,0.001399,0.226732,-0.001331,-0.070313,0.047887,-0.029811,-0.289158,0.000545,-0.032779,0.020510,-0.003830,-0.182476,0.093354,-0.000416,-0.000940,-0.001558,0.038881,-0.030293,0.000377,-0.274949,0.109879,0.183937,-0.001581,-0.033829,0.031505,0.309987,-0.230034,0.019276,0.085097,-0.247578,0.090768,0.046023,-0.249641,0.260248,0.492890,0.081343,
	-0.289680,-0.051849,0.125312,0.050536,-0.205508,0.130913,0.031696,0.074101,0.213534,0.045720,-0.321694,-0.156783,-0.015064,-0.175162,0.075301,0.075395,0.055105,-0.019031,0.000842,0.114584,0.050496,0.000003,-0.001952,-0.000104,-0.000989,-0.001028,-0.001622,-0.011191,-0.001796,-0.131863,0.000285,-0.051647,0.005273,0.114519,-0.112906,0.001000,-0.210773,-0.064097,0.101491,0.173202,0.057872,-0.000981,0.000514,-0.000661,0.257980,-0.103713,0.000674,-0.132002,0.593684,-0.152393,0.001193,0.078218,0.009345,0.091668,0.089867,-0.571313,0.092378,0.055344,0.075499,0.004538,0.023053,0.161630,-0.063182,0.109183,
	-0.108836,-0.144240,0.103902,0.121355,-0.168770,0.092883,0.286461,0.073960,0.322041,0.024192,-0.214872,-0.203272,0.008550,0.055541,-0.126630,0.059888,0.170411,-0.041880,0.000215,-0.442920,0.018630,0.000483,0.001345,-0.000995,0.000444,-0.001755,-0.000056,-0.330171,-0.000786,0.074323,-0.000419,0.116689,-0.005566,0.127705,0.145103,-0.000354,-0.002112,0.255230,0.148584,0.131475,0.111464,-0.000661,-0.001236,0.000059,0.146205,0.112776,-0.000564,0.106781,-0.284837,-0.134764,0.000950,0.021596,0.041655,0.007901,0.407629,-0.037592,0.036499,-0.113494,-0.013450,0.071667,-0.003260,0.005561,-0.532517,0.103017,
	0.196288,-0.040476,-0.010483,-0.241428,-0.134546,-0.052742,-0.049831,0.186982,-0.220025,0.048591,-0.022140,0.255349,0.059295,-0.068662,0.067624,0.039650,-0.042339,0.060789,-0.000507,0.056285,0.063266,-0.000416,-0.002061,-0.001004,-0.000420,-0.002097,0.000273,-0.090632,0.000071,0.227343,0.000083,0.044493,-0.011406,0.069289,-0.225737,0.001127,-0.038147,0.102510,-0.095604,-0.003870,0.103207,0.000813,-0.000041,0.000089,0.007623,0.055295,-0.000277,-0.072215,-0.048827,0.009446,-0.001035,-0.002591,-0.032760,0.162609,0.071544,0.156536,0.066246,-0.148482,0.051618,0.010145,-0.097340,0.018228,0.016926,-0.023758,
	0.097468,0.183578,-0.075873,-0.284412,0.247165,-0.171666,0.282794,-0.047332,0.003759,-0.170683,0.040326,-0.038207,0.081214,0.051852,0.155812,-0.050274,-0.191123,-0.028909,-0.002082,0.079710,-0.000831,-0.000737,0.002132,-0.002973,-0.002695,0.001320,0.000147,-0.141856,-0.001206,-0.043330,0.000617,-0.022964,0.010811,0.084055,0.225347,-0.001093,0.010349,-0.028641,-0.146666,-0.035700,0.099727,-0.000168,-0.000911,0.000973,-0.109363,-0.253486,0.000236,0.006099,-0.040714,0.151419,-0.001549,-0.047755,-0.012107,-0.059383,-0.003094,0.155655,-0.081578,-0.180464,-0.049904,0.057949,0.248503,0.029732,-0.237790,-0.088561,
	-0.005647,0.167081,-0.012898,0.339261,-0.055627,-0.043067,-0.529874,0.048088,0.029378,-0.056729,0.179976,0.105671,0.186225,0.010789,-0.188597,0.008426,0.038163,0.046997,-0.000664,-0.023798,0.029277,-0.001763,-0.000725,-0.000893,0.001090,0.000633,0.000981,0.041418,0.001315,0.053376,0.000656,0.137385,-0.008090,-0.287323,0.171983,-0.000338,-0.007354,-0.509834,-0.319755,0.701622,0.030443,-0.000441,0.000639,0.000324,-0.167093,0.319578,-0.000457,-0.455538,-0.016554,-0.031782,-0.001600,-0.233952,-0.012162,-0.062446,0.168510,0.004601,0.028796,0.129890,0.112378,0.026584,0.449862,-0.074889,0.225207,-0.030784,
	-0.130359,0.074863,0.100657,-0.185768,0.267832,0.143913,0.447630,0.083055,0.051969,-0.012579,0.105701,-0.055865,0.024635,0.091042,0.138774,-0.016213,-0.046139,-0.269355,-0.000887,0.108330,-0.073004,0.000173,-0.001206,-0.000040,-0.000116,0.000974,-0.000527,-0.049464,-0.000056,-0.106625,0.000116,-0.126823,-0.021759,0.133651,0.103294,0.000405,-0.072395,0.200086,-0.473202,0.202429,0.104411,-0.000826,0.000199,0.000416,-0.298674,-0.228768,0.001059,0.154510,0.450580,-0.021444,0.000548,0.072941,-0.089782,-0.072178,0.039231,-0.045629,-0.022867,0.104764,-0.004944,0.036963,0.239251,0.103812,-0.281164,0.087375,
	0.625425,0.178929,0.073731,-0.494207,-0.060781,0.038292,0.387696,0.030248,0.007424,-0.092276,0.069880,0.048038,0.059000,0.241576,-0.019524,0.038201,-0.495286,0.187679,-0.000666,0.186750,0.031565,0.000936,0.000484,0.000739,0.000539,-0.001067,0.000334,-0.367161,-0.000516,-0.084194,-0.000114,0.207496,-0.052334,-0.045149,0.481866,0.001427,0.105085,-0.014031,-0.177238,-0.387851,-0.036307,0.000143,-0.001447,0.000962,-0.314826,-0.285257,-0.000589,0.707070,-0.072275,-0.115675,-0.001849,-0.112362,0.059606,0.011742,-0.523804,0.102133,-0.040789,-0.100536,0.035916,0.074397,0.757879,0.001480,-0.250123,0.013653,
	0.191042,0.123311,0.159490,-0.097031,-0.303756,0.087384,0.108614,0.066442,-0.320897,0.022302,-0.039485,0.037081,0.060150,0.143229,-0.097933,0.090472,-0.053064,-0.141118,0.000263,-0.208979,0.096044,0.000182,0.001245,0.000625,-0.000581,0.000741,-0.001237,0.067283,0.000058,-0.013404,0.001082,0.598668,0.017572,-0.160960,0.653627,-0.000557,0.183817,-0.246286,0.218041,0.119481,-0.024393,0.001393,-0.001385,-0.000050,-0.177302,0.197500,-0.000297,-0.136639,-0.212917,0.092481,-0.001420,-0.048969,0.132982,0.300001,0.052801,0.176573,0.027246,0.012330,0.056998,0.072026,0.465076,0.052478,0.045586,0.011639,
	-0.011692,0.168253,-0.086111,0.003109,-0.161478,-0.029238,-0.451587,0.012841,-0.159434,0.000493,-0.012861,0.320039,-0.048190,-0.061515,0.182360,-0.125453,0.181149,0.259670,0.000613,0.044154,-0.070651,0.000207,0.000922,-0.000012,-0.000732,-0.001162,0.002470,0.686377,-0.000684,-0.080287,0.001617,0.447178,-0.031521,-0.430421,0.139321,-0.000828,-0.048366,-0.036558,0.192065,-0.160325,-0.123624,-0.000657,0.000562,-0.000891,-0.273635,0.123944,0.000852,-0.265158,-0.382563,0.096023,0.000344,-0.300342,0.089556,-0.220538,-0.072765,0.681407,-0.135260,0.251142,-0.144262,-0.001523,-0.096402,0.195165,0.210473,-0.006042,
	-0.270679,-0.040669,0.006684,0.151430,0.136237,0.063961,-0.280462,0.035764,-0.086690,0.009508,-0.139596,0.109806,0.056722,0.035073,-0.163064,-0.015552,0.046868,0.106781,-0.002530,0.256368,-0.019091,0.001989,0.000428,-0.000959,-0.000693,-0.001044,0.000248,0.405201,0.000693,-0.283556,0.000190,0.127412,0.005230,-0.082909,-0.128123,0.001100,-0.180593,0.043905,0.213389,-0.144174,-0.184226,-0.001200,0.002516,-0.000743,-0.094595,0.024950,0.001360,0.067814,0.201274,-0.318657,-0.000112,-0.049125,0.000078,-0.071781,-0.013564,-0.130534,0.003302,0.315172,-0.014709,0.017082,0.030361,0.051211,0.136883,0.056429,
	-0.030754,0.124989,0.107562,-0.083530,0.293675,0.127621,0.253421,0.021402,0.174285,0.003151,0.058893,-0.153851,0.008929,0.210459,-0.088393,0.053054,-0.206117,-0.185263,0.001500,-0.108546,-0.022224,-0.000586,-0.000069,0.000226,-0.002504,-0.000314,-0.000703,-0.297496,-0.000691,-0.071037,0.001976,-0.061925,0.045618,0.302994,0.291859,0.000606,0.125912,-0.245763,0.002994,0.115641,-0.150973,0.000116,-0.000003,0.000096,0.004573,0.059626,-0.000151,0.242286,0.202426,-0.151975,0.000671,0.372593,-0.019989,0.078165,-0.165370,-0.069988,0.036037,-0.158473,-0.043247,0.087375,0.138355,-0.079549,-0.010494,0.106918,
	0.029876,0.124455,-0.102164,0.115256,0.047969,-0.028018,-0.006180,0.069812,-0.201704,-0.008897,-0.028117,0.028808,-0.045350,-0.013173,0.119487,-0.040371,0.056489,-0.019006,0.000436,0.144998,-0.098926,-0.001127,-0.000768,-0.000174,0.000499,-0.000085,-0.000762,0.107406,-0.000318,-0.023827,-0.001552,-0.069917,-0.025736,-0.234738,-0.011542,0.000342,0.105204,-0.046159,0.129645,-0.266993,-0.201173,-0.000041,0.000815,0.000242,-0.090381,-0.186899,0.001189,-0.119830,-0.009533,0.064842,-0.000772,-0.176590,0.005662,-0.134146,-0.137486,0.003885,-0.001803,0.312636,-0.090339,-0.005795,0.034524,-0.055953,0.186230,0.041129,
	0.016809,-0.085298,-0.121009,0.157550,-0.030662,-0.126519,0.061705,-0.257638,0.117734,-0.054137,-0.103843,0.155686,0.031576,-0.027040,-0.059917,-0.046122,0.121685,0.097459,-0.001875,0.039943,0.024224,-0.000217,-0.000131,-0.000037,0.002409,-0.001059,0.000249,0.331811,0.000555,-0.046279,-0.001711,-0.040256,0.092210,0.127847,-0.056727,0.000717,0.035000,0.018607,0.136416,-0.219268,0.120269,-0.000658,0.001932,0.000522,0.248288,-0.100248,-0.000994,0.094660,-0.044821,-0.121350,0.000127,0.011824,-0.003150,-0.150257,-0.002923,-0.442605,-0.021064,-0.266913,-0.006869,0.026332,-0.491863,-0.100983,-0.067456,-0.043404,
	-0.183179,-0.230874,0.009514,0.111424,-0.305837,0.024752,-0.420829,-0.042094,-0.090730,0.047616,-0.149421,0.179380,0.073812,-0.080006,-0.148863,0.023092,0.028137,-0.055910,0.000278,-0.043283,0.092695,-0.001588,-0.000087,0.000517,0.000112,0.000449,-0.001247,-0.050702,-0.000511,0.043518,0.001188,0.090937,0.056660,0.040432,-0.246143,0.001560,0.187936,0.000411,0.023268,0.355521,-0.025150,-0.001789,-0.000634,-0.000663,0.004442,0.282437,-0.000376,-0.300566,-0.354798,-0.043547,-0.000095,-0.021367,0.017819,0.039413,0.088358,0.288027,0.098683,-0.010338,0.176432,-0.055387,-0.332709,-0.042826,0.059422,-0.002507,
	-0.160161,-0.242645,0.046046,0.003458,-0.080031,0.105892,-0.308159,0.006817,-0.187437,0.061746,-0.150013,-0.074482,-0.101854,-0.046120,0.094620,-0.068150,0.059462,-0.082723,0.000792,-0.206156,-0.074753,-0.000678,-0.000009,0.000719,0.000549,0.000035,-0.000425,-0.182888,-0.000910,0.063233,-0.000284,-0.164295,0.033203,0.054107,-0.257072,-0.000293,-0.047916,0.250035,-0.106860,0.059543,0.142992,-0.000342,-0.000188,-0.000822,0.295599,0.053823,-0.000101,-0.082686,0.156915,-0.095493,0.001740,0.076598,0.026964,0.049940,0.101547,0.250357,-0.004616,0.192919,-0.012226,-0.104652,-0.115898,0.121076,0.074659,0.012957,
	0.359829,-0.003364,0.067059,-0.176060,0.106557,0.098873,0.302534,0.053384,0.114230,0.024429,0.004614,-0.285618,0.007118,0.029197,-0.085110,0.019336,-0.144658,0.317234,0.000906,0.092253,-0.016139,0.001436,0.000771,-0.001319,0.001085,0.000042,-0.000839,0.085180,-0.000387,0.014668,-0.001497,-0.169069,0.009713,0.232383,0.137931,-0.000123,-0.339469,-0.239710,0.214631,-0.199520,0.056422,0.000116,-0.000390,-0.000575,0.262634,-0.047657,-0.000237,0.198909,0.221503,-0.140347,-0.000445,0.099144,0.158265,0.112768,-0.141768,-0.366172,0.061550,-0.093103,0.071628,-0.062769,0.081899,0.015420,0.176007,0.012340,
	-0.188901,-0.019014,0.219033,0.168180,-0.018742,0.245626,0.429571,0.081770,0.191104,0.121862,-0.096503,-0.353922,0.065901,-0.012629,-0.139661,0.147229,0.096851,-0.065839,-0.000076,0.086056,0.076574,-0.000903,-0.000685,0.000025,0.000104,0.001752,-0.000326,0.267168,-0.000544,-0.074954,-0.000502,0.076662,0.034623,0.183733,-0.136718,-0.000527,-0.230245,-0.048645,0.037513,0.106703,0.029504,-0.001509,0.000519,0.000319,-0.021756,-0.076409,-0.000898,-0.078489,0.143182,-0.038960,-0.000857,0.045059,0.112909,0.260874,0.156990,-0.611817,0.170490,-0.038397,0.157582,0.027716,0.147173,-0.026093,-0.243913,0.118616,
	-0.223433,0.007407,0.026905,0.091053,0.035879,0.125305,0.215549,0.051338,0.043780,0.091697,-0.030123,-0.023578,0.033646,-0.101326,0.247955,-0.034558,0.071876,0.094152,-0.000084,-0.211066,-0.056035,-0.002312,0.001024,-0.000437,0.000868,-0.001492,0.000684,0.115427,-0.000315,-0.123178,-0.000705,-0.156480,-0.020982,-0.250108,-0.029103,-0.000015,-0.028468,0.063399,-0.149859,-0.023358,0.147814,-0.000063,0.001849,0.000210,-0.109170,-0.025941,-0.001406,0.075877,-0.257832,0.032252,0.000155,-0.155671,0.018961,-0.171195,0.073329,0.052883,-0.009244,0.058027,-0.031031,0.017958,0.090368,0.099772,-0.139527,0.092440,
	-0.111118,-0.097625,0.005324,0.039176,-0.025629,0.061612,0.131883,0.112714,-0.019696,0.047003,0.071898,-0.033707,0.145424,-0.017108,0.117950,-0.009797,0.180153,-0.071649,0.000555,-0.073664,-0.007010,-0.001187,0.000087,-0.000440,0.001215,0.000693,-0.000364,-0.068626,0.000192,-0.006352,-0.000677,-0.133315,-0.002862,-0.055615,-0.009800,-0.000662,0.054627,0.197238,-0.043636,0.009611,0.071581,0.001195,0.000419,0.000841,-0.019599,0.051652,-0.000291,-0.019523,-0.060824,-0.108946,-0.000073,-0.057692,-0.037726,-0.042446,0.100248,-0.009912,0.040229,-0.149826,0.051149,-0.001045,-0.191447,0.065439,-0.141458,0.034744,
	0.322114,0.097274,0.000677,-0.094790,-0.113110,-0.024126,-0.206627,0.017544,0.034574,-0.007527,0.150204,0.010183,0.040063,0.110318,0.050693,0.008686,-0.043932,-0.069666,0.002870,0.053957,0.056756,-0.001450,-0.001397,-0.000799,-0.001240,0.000149,0.000169,-0.245728,-0.000766,0.289924,0.000090,-0.016348,0.002392,0.117933,-0.200768,-0.000774,0.003292,0.149549,-0.140796,0.042931,0.056344,0.000336,-0.000662,-0.000636,0.211426,0.213201,0.001497,0.050591,0.117152,0.216863,-0.001218,0.125088,-0.025289,0.087949,0.120345,-0.022988,0.008439,-0.320158,0.046882,0.013927,-0.161941,-0.058610,-0.226044,-0.024896,
	-0.185141,-0.143084,-0.042837,0.056351,-0.144560,0.007248,-0.040693,0.073575,0.106529,0.019864,0.008814,0.014598,-0.019146,-0.001405,-0.012115,-0.022850,-0.058578,0.026628,-0.000612,-0.047548,-0.018174,0.000235,0.000611,-0.000508,0.000508,-0.000738,-0.001411,0.160608,0.000714,-0.107564,-0.000177,0.047096,-0.050433,-0.182579,-0.015641,-0.000649,-0.147910,0.057878,0.089810,-0.057917,-0.018330,0.000613,-0.000449,-0.001407,-0.016223,0.099894,0.001081,0.097096,0.036427,0.022316,-0.000192,-0.006354,0.039477,-0.075009,0.182034,0.010323,0.017657,0.244308,0.004272,-0.026691,0.075463,-0.046217,0.040419,0.035871,
	-0.066470,0.209245,-0.025259,0.025232,0.040502,-0.047856,0.120842,-0.084095,-0.007747,-0.014247,0.035910,0.043775,0.041676,0.064285,0.044573,-0.032456,-0.024303,-0.199494,0.000380,-0.127110,0.073988,-0.000219,0.000924,-0.003373,0.001243,-0.000923,0.000861,-0.288914,0.000658,0.043530,-0.001336,0.034296,0.108696,-0.189312,-0.110221,-0.000861,-0.041791,-0.090562,-0.196532,-0.325900,-0.169336,0.000857,0.000614,0.000128,-0.044028,0.040115,0.000214,0.439175,0.348016,-0.160247,0.000005,0.085478,-0.013130,0.074956,-0.191030,-0.021637,0.000002,0.243250,0.045019,-0.022420,0.477858,-0.024241,0.251140,-0.040759,
	0.180055,0.047316,-0.009708,-0.245501,0.281208,0.013433,0.546452,-0.034382,0.057167,0.000748,0.021772,-0.131706,0.011366,0.025128,-0.048160,0.005591,-0.221554,-0.024621,-0.002393,0.252943,0.095048,-0.000188,-0.001434,-0.001038,0.000222,-0.001821,-0.000028,-0.054239,-0.000388,-0.059826,-0.001026,-0.083561,0.029779,-0.011876,0.156457,0.001801,0.087066,0.199328,0.218923,0.064210,-0.234440,0.000765,0.000742,-0.001052,-0.319113,-0.165681,0.000936,-0.219708,-0.006919,0.212393,0.001371,0.093056,-0.043904,-0.051164,-0.116906,0.051468,0.022134,0.055703,0.097967,-0.045605,0.033417,0.003575,-0.041464,0.013552,
	-0.035660,0.178395,-0.000979,0.063366,-0.058496,0.034828,-0.072813,0.000635,-0.074287,0.000316,0.005769,-0.039992,-0.098442,-0.012447,0.188290,-0.040950,0.123938,0.213118,0.000705,-0.094544,-0.068572,0.000480,-0.000210,0.000368,0.000469,-0.001158,0.000971,0.173838,0.000324,-0.107392,0.000250,0.169669,0.047895,-0.155265,-0.122900,0.000644,0.020350,0.167853,0.316364,-0.117561,-0.017876,0.000785,-0.000549,0.000415,0.050835,-0.026336,-0.000165,-0.119056,-0.259396,0.042298,-0.001266,-0.221579,-0.005181,0.062479,0.014916,0.119540,-0.020205,0.040476,-0.054886,-0.090647,-0.220030,0.099805,0.068662,-0.009588,
	-0.253522,0.201428,0.043258,0.163186,0.095959,0.077230,-0.383515,0.103397,0.106807,0.047637,0.094029,0.038900,-0.013422,-0.004636,0.190974,0.013277,0.258921,0.271813,0.000248,0.025951,-0.089903,0.001327,0.000815,0.002042,0.000897,-0.002063,-0.000618,0.360304,-0.000197,0.116305,0.001610,-0.066951,0.077021,-0.114406,-0.079611,-0.000444,-0.047497,-0.140220,0.442955,0.056953,-0.006481,-0.001363,-0.000698,0.000486,0.442765,0.299974,0.000263,-0.085394,-0.220543,-0.026489,-0.001238,0.067959,0.106628,0.156664,-0.052644,0.315190,0.076140,-0.113376,-0.004249,-0.063127,-0.655892,0.041678,0.093638,0.017528,
	-0.183705,-0.213843,0.088092,0.217576,-0.004121,0.100885,-0.271535,0.034956,0.235096,0.063831,0.015208,-0.097512,-0.032460,-0.108150,-0.281036,0.068726,0.189909,0.016480,-0.000501,0.077157,-0.030558,-0.000955,-0.000793,-0.000750,0.000947,-0.000297,0.000772,-0.187094,0.000508,0.020551,0.000758,-0.174934,0.049372,0.124024,-0.360282,-0.000899,-0.073039,0.181599,-0.065802,0.067706,-0.034399,0.000684,-0.000764,-0.000879,0.348537,0.010898,-0.000102,-0.052984,0.090651,-0.007051,-0.002039,0.032484,-0.051380,0.098254,0.094194,-0.035797,0.074138,0.030284,0.025245,0.036068,-0.494987,-0.047123,-0.171969,0.074509,
	0.283954,-0.168582,0.018156,-0.105863,0.148326,0.044684,-0.075712,-0.052124,0.110150,0.003278,0.094450,-0.052089,-0.080806,-0.228726,-0.095599,-0.008198,-0.277744,-0.139397,0.000763,0.173522,-0.061947,0.000978,-0.000104,-0.000624,-0.000201,0.000283,-0.000189,-0.322876,-0.000414,-0.161203,-0.000938,-0.248490,0.004437,0.157354,0.044074,-0.000242,-0.036168,-0.168338,-0.209293,-0.048782,0.165734,0.001910,-0.000026,-0.000111,0.030038,-0.019212,0.000243,0.272092,0.273269,0.102729,0.000925,0.145922,-0.144001,-0.109065,-0.127615,-0.176333,-0.038555,-0.171876,-0.066036,0.065258,0.265220,0.012450,0.350073,0.069244,
	0.003024,0.077692,-0.012796,-0.082367,0.051879,-0.020416,0.180728,-0.012171,0.005298,-0.015528,0.027698,0.010670,-0.006428,-0.050878,-0.024672,-0.003318,-0.097497,-0.344333,-0.000471,0.044706,0.002213,0.000476,-0.000734,0.000020,0.000271,0.000301,0.001055,-0.175007,0.000327,0.017646,-0.000343,0.016458,0.026964,-0.007772,0.238307,0.001050,0.097591,-0.183378,-0.067167,0.170674,0.078928,0.000863,0.000297,-0.000013,-0.122916,-0.220768,-0.000821,-0.122962,0.029627,0.050375,0.000656,0.110074,-0.076207,-0.002614,-0.148831,0.014320,0.006358,-0.074785,0.026735,0.019390,0.301434,0.024943,0.146659,0.001135,
	0.240727,0.114783,-0.107995,0.069699,-0.024980,-0.151631,-0.099786,-0.069775,-0.092461,-0.094335,-0.067443,0.053134,-0.057440,0.079038,-0.089508,-0.021463,0.095213,0.001599,0.001954,-0.061200,0.081591,-0.000646,-0.001259,0.000529,-0.001871,-0.000695,0.000238,-0.197257,0.000170,0.295938,0.000151,0.131082,-0.020770,0.067033,-0.046267,-0.001160,0.075103,0.004240,-0.011131,-0.010371,0.099926,-0.000686,0.001449,-0.000506,-0.063840,-0.185647,0.000634,-0.079748,-0.286651,0.187711,-0.001440,-0.176747,-0.001791,-0.079715,0.143450,-0.096968,-0.039605,-0.058253,0.062312,0.006057,-0.004251,-0.039778,-0.116975,-0.069663,
	-0.143555,0.002250,0.044633,-0.024705,0.120180,-0.003470,-0.018041,0.077100,0.083429,-0.008775,-0.076762,-0.003435,-0.080713,0.007436,-0.138053,0.024988,0.089169,0.003885,-0.000387,-0.039735,0.051684,0.000664,-0.000181,0.001936,0.000485,-0.000205,0.000421,0.019928,0.000442,-0.074551,-0.001431,0.028971,-0.031368,0.182758,0.194804,-0.000657,0.131845,-0.168991,-0.060498,0.125216,-0.011556,0.000775,-0.000345,0.000222,0.045271,-0.066963,-0.001635,-0.112008,-0.010202,-0.217820,-0.000993,0.017361,0.046365,0.119465,-0.130315,0.193421,0.005950,0.045694,0.045272,0.002611,-0.011420,0.087724,-0.087339,0.008092,
	0.047419,-0.095247,0.135641,-0.053975,-0.059710,0.122445,-0.069594,0.195828,-0.057549,0.114924,0.014582,-0.176091,-0.073422,-0.026908,0.003354,-0.102930,0.002610,0.051192,-0.000157,0.010746,0.020384,0.001378,-0.001712,-0.003237,-0.001637,-0.000376,0.001017,0.139062,-0.000728,-0.060867,-0.000557,-0.044486,-0.002713,0.120895,0.070211,0.001146,-0.069643,0.077726,0.173590,0.045665,0.167423,-0.001089,-0.000375,-0.000047,0.084141,-0.008031,-0.001095,-0.219361,-0.210843,-0.012216,-0.000590,-0.160588,0.091025,0.032414,0.050570,0.081606,-0.084303,-0.126518,-0.031673,-0.075331,-0.177873,0.126570,-0.118723,0.029151,
	-0.032212,-0.119042,0.033342,0.178698,-0.027001,0.039203,-0.390423,-0.115092,0.038701,-0.086722,-0.003674,0.065427,-0.043173,0.030150,-0.056686,0.058409,0.118135,0.169112,-0.001586,0.023102,0.174100,0.001690,-0.000442,-0.002287,0.000267,0.000952,-0.000516,0.015304,-0.001494,0.062210,-0.000753,-0.018286,-0.051467,-0.078514,0.011513,0.000486,0.086619,-0.300228,-0.110224,0.334342,-0.068602,0.001463,0.001639,-0.000240,0.141365,0.146371,0.000599,-0.043867,0.096410,0.156627,-0.000687,0.081263,-0.085066,-0.120262,0.132965,-0.080666,0.000619,0.002960,0.136471,-0.004265,0.030585,-0.076152,0.067955,0.043506,
	-0.088013,-0.119041,-0.128627,-0.027807,-0.152009,-0.069308,0.312994,-0.063936,0.042864,-0.139458,0.063294,0.108334,0.051688,-0.003210,-0.088219,-0.014232,-0.009318,-0.261086,-0.000709,-0.060948,-0.003879,-0.001134,-0.000046,0.000209,-0.000025,-0.000205,0.000176,-0.040368,0.000129,-0.070787,0.000026,0.113381,0.002110,0.119845,-0.014200,-0.001841,0.083703,0.091082,-0.265059,-0.114807,-0.030658,-0.002013,-0.001432,0.000747,-0.235143,-0.120543,-0.000016,0.137118,0.181073,-0.053640,0.000447,0.172536,-0.100524,-0.106279,0.010911,-0.146484,-0.002441,-0.074625,-0.000966,-0.059406,0.157151,-0.058192,-0.195965,-0.039757,
	0.295918,0.119355,-0.131222,-0.196753,0.172055,-0.015425,0.034528,0.067016,0.004276,-0.113577,-0.054385,0.120161,0.188332,-0.007098,-0.064380,-0.009960,-0.223454,-0.074067,0.000388,0.048681,-0.074709,-0.001489,-0.000178,0.000324,-0.000785,-0.000186,-0.000846,-0.170148,0.000205,0.142841,-0.000007,-0.110786,0.048718,0.034761,0.105939,-0.001361,0.169094,-0.058463,-0.176348,-0.197437,0.071589,0.000163,-0.000296,-0.000578,-0.107298,-0.034752,-0.000054,0.216059,0.027770,-0.001360,0.000109,-0.048549,0.083441,-0.172037,-0.112751,-0.133534,0.088486,0.044306,0.018489,-0.045317,0.233542,-0.092076,0.090436,0.014310,
	0.041087,0.040787,-0.009230,-0.103735,-0.107389,-0.016137,0.025153,0.034071,-0.288111,-0.063979,-0.053589,0.205343,0.037167,-0.022754,0.061702,0.051610,-0.049469,-0.029054,-0.001602,-0.200675,0.039627,-0.000590,0.000286,-0.000517,-0.000053,0.000260,-0.000025,-0.122039,-0.001689,0.016842,0.000404,0.091670,0.050533,-0.048247,-0.115549,-0.000269,0.050515,0.102958,-0.087403,0.150496,-0.005627,-0.001032,-0.001617,0.000740,0.086545,-0.120244,-0.001482,-0.051680,-0.125370,-0.010922,0.000085,-0.115585,0.005159,0.026308,0.064768,0.151643,0.068978,0.158317,0.041390,0.017716,0.017105,-0.050248,-0.077811,0.000844,
	-0.103544,-0.078733,-0.019398,0.008514,-0.042039,-0.045814,0.106563,0.023427,-0.012604,0.005938,0.028128,0.022899,-0.101837,-0.112662,0.206260,-0.034096,0.064606,0.134585,-0.000590,0.086467,-0.030469,-0.000705,-0.000847,0.001124,0.000398,0.000352,-0.003296,0.221629,0.000710,0.008218,-0.000936,0.178445,0.056156,-0.101350,0.071831,-0.000564,-0.124341,-0.023347,0.228143,-0.138024,-0.093477,0.000336,-0.000802,-0.000203,-0.119585,-0.006054,-0.000872,-0.114975,-0.095451,0.038110,0.000982,-0.010671,-0.029294,0.019237,-0.040464,0.051955,-0.037364,-0.062993,-0.100969,0.010738,-0.196447,0.084844,0.063629,-0.013759,
	-0.116811,0.193285,-0.005852,0.132500,-0.051566,0.013486,-0.111730,-0.012323,0.029502,0.036852,-0.090204,-0.005226,-0.032891,0.086254,-0.131281,0.008188,0.064917,0.115269,0.000426,0.039635,-0.009616,-0.000803,0.001253,0.000235,-0.000296,-0.003444,-0.001147,0.003547,0.001094,0.156066,-0.000474,-0.038458,0.125250,-0.123042,-0.155675,-0.001365,-0.020951,0.085483,0.112420,-0.072104,-0.068647,-0.000386,-0.001535,0.000037,0.091832,0.072639,0.001113,-0.089985,0.129367,-0.074286,-0.001180,-0.115231,0.036694,0.092776,-0.020889,0.095058,0.049159,0.207613,-0.009353,0.025802,0.014484,0.011603,-0.044567,0.026358,
	-0.010267,-0.060085,-0.055109,-0.045926,0.047358,0.024089,0.037484,-0.004050,0.066303,0.007383,0.069442,-0.041576,0.004819,0.116820,0.139630,0.047314,-0.039919,-0.035414,-0.000378,-0.132038,0.018628,-0.000897,0.000141,0.000651,-0.000976,-0.001838,-0.000094,-0.056759,-0.000607,0.014023,-0.000846,0.024416,0.085612,0.052401,-0.015137,-0.000017,0.049962,-0.066456,0.011584,0.030029,0.070240,-0.000492,0.000600,0.000012,0.012878,0.220746,-0.000132,0.142050,-0.012780,-0.037009,0.000518,0.137209,-0.018125,-0.095377,0.167139,-0.026736,0.082493,-0.183828,0.074551,0.061775,-0.172016,-0.066369,-0.138281,0.088239,
	0.023704,-0.036192,-0.039393,-0.003084,-0.020337,0.016877,0.047296,0.073502,-0.043212,0.017816,0.014859,-0.017493,-0.027332,-0.113120,0.028703,0.048039,-0.060133,0.056527,-0.001826,0.086946,-0.044702,-0.000587,0.001548,0.000516,-0.001416,0.000002,-0.001449,0.139780,-0.001007,-0.175422,0.000054,-0.028454,0.010004,-0.055737,-0.077523,-0.000034,-0.095539,0.156894,-0.036959,-0.037063,-0.079346,-0.001613,-0.001687,0.000274,-0.017050,-0.044489,-0.002296,0.044915,0.063538,0.020876,0.001898,-0.000993,-0.053899,-0.029368,-0.071439,-0.088931,0.036970,0.047951,0.028824,0.049093,0.075689,0.075972,0.145139,0.082134,

};
const float WEIGHT_CONV2[64][32] = {
	-0.240048,-0.152868,0.172928,-0.034732,0.205968,0.266546,0.006178,-0.095082,0.116678,0.061100,0.193519,0.018110,0.298681,-0.000106,0.781976,0.211883,0.024492,-0.030465,0.035122,0.026411,0.077388,0.422056,0.072960,0.311743,0.405235,-0.247947,0.000050,0.200831,-0.286576,0.000552,0.572282,0.223489,
	0.103714,-0.451003,0.120932,0.088809,0.148427,0.006988,-0.013292,-0.075439,0.108615,0.118349,0.205936,0.003206,0.262147,0.046651,0.379607,0.240526,-0.016881,0.116496,-0.012224,0.137138,0.255722,0.138537,0.059599,0.178769,0.496144,0.061465,-0.002515,0.232859,0.106067,0.017729,0.449317,-0.008878,
	0.111734,-0.070777,0.121731,0.115324,0.116900,0.056940,0.191669,0.270628,0.113384,0.104444,0.078970,0.170499,0.073968,-0.027792,0.032727,-0.076983,0.161448,0.128696,0.225030,0.103223,-0.047979,-0.079741,0.156873,0.067120,0.139826,0.174146,0.000023,0.032523,0.195324,-0.172258,0.033468,-0.171895,
	0.043521,0.144087,-0.177655,-0.250920,-0.292439,-0.216813,-0.017106,0.087871,-0.232253,-0.263398,-0.336651,-0.066473,-0.294898,0.015003,-0.280893,-0.138832,-0.089105,-0.201960,0.061404,-0.280451,-0.274577,-0.283221,-0.090129,-0.308055,-0.007346,0.016206,0.000015,-0.365124,-0.018673,0.003704,-0.052153,-0.433312,
	-0.237285,0.059531,-0.038426,-0.181773,0.020928,0.077802,-0.075068,0.101401,-0.054111,-0.055349,-0.329129,-0.011934,-0.241758,0.041954,0.223526,-0.055531,-0.006257,-0.190434,0.061417,-0.135424,-0.314063,-0.400773,-0.051758,-0.095714,-0.469681,-0.582459,0.001428,-0.468877,-0.352530,0.001567,-0.165108,0.202330,
	0.121537,-0.036572,0.137910,0.111710,0.140477,0.055068,0.180458,0.268530,0.129309,0.126578,0.131160,0.177506,0.175894,0.031172,-0.124012,-0.237556,0.166212,0.168543,0.230715,0.112647,-0.005391,-0.092915,0.158166,0.100398,0.148945,0.059436,-0.000433,-0.265068,0.177859,-0.100550,0.095149,0.043170,
	-0.236761,0.387014,-0.018015,-0.064476,-0.032775,-0.077606,-0.307877,-0.590931,-0.030744,-0.072180,-0.120879,-0.248678,-0.277458,0.010692,-0.406704,0.285735,-0.242528,-0.130129,-0.362186,-0.083516,0.066081,0.063446,-0.185073,0.076315,-0.462697,-0.722961,0.000297,-0.332634,-0.695247,0.021109,-0.253510,-0.360044,
	-0.285481,-0.127625,-0.003533,-0.047303,0.013995,0.038729,0.048326,0.198220,-0.023600,-0.009455,-0.110197,0.044789,-0.101912,0.027772,-0.304817,0.039924,0.019118,-0.019628,0.132375,-0.021793,-0.035750,0.015597,0.032852,-0.067563,-0.350366,-0.025983,0.000207,-0.064717,-0.038078,0.020773,-0.317277,-0.006741,
	-0.612738,0.059951,0.052375,-0.131591,0.048931,-0.793036,0.059621,0.089375,-0.023977,-0.093450,-0.045862,-0.042075,-0.089913,-0.125417,-0.351382,-0.920665,-0.114818,-0.284802,0.117269,-0.069793,-0.182504,0.084460,0.057876,-0.245138,-0.107706,-0.048479,-0.000988,-0.738308,-0.279425,0.145951,0.020857,0.182646,
	-0.122189,0.005409,-0.013714,0.018960,-0.085602,-0.110598,0.126104,0.055678,-0.022300,-0.080263,-0.058414,0.054483,-0.145310,-0.028713,-0.231546,-0.013998,0.095752,-0.074358,0.061625,-0.061935,-0.026767,-0.358641,0.030772,-0.156681,-0.081095,0.089631,-0.001787,-0.187587,-0.085839,-0.042530,0.016308,-0.118050,
	-0.060052,0.164276,-0.023779,-0.296927,0.072816,0.117506,-0.245955,-0.116134,-0.100483,-0.091957,-0.160831,-0.199951,-0.037775,0.021160,-0.101131,-0.127274,-0.248987,-0.165023,-0.094518,-0.135503,-0.316392,-0.366220,-0.113123,0.056910,-0.680904,0.067165,0.000211,-0.201919,0.009105,0.013751,-0.093144,-0.074125,
	0.185065,-0.042502,0.087544,0.315137,0.069943,0.132628,0.123658,0.039116,0.160492,0.197380,0.127954,0.153662,0.054935,0.024871,0.337284,0.395279,0.154619,0.192459,0.048420,0.230301,0.327469,0.509725,0.110007,0.026750,0.202231,-0.109235,-0.000762,0.280611,-0.114755,0.007690,0.195712,0.032417,
	0.160147,0.032962,0.009544,0.016690,-0.006538,-0.064224,0.028637,0.063157,-0.004780,0.001943,-0.068884,0.026442,-0.088154,-0.151708,-0.270242,0.070676,0.008767,0.004149,0.069165,-0.008712,0.028152,0.276341,0.023252,0.082460,0.026867,-0.040529,0.000664,0.183575,0.043652,0.041918,-0.395914,0.051557,
	0.139229,-0.199725,0.002218,0.085581,0.084742,0.021544,-0.006177,0.107822,0.040884,0.112921,0.219720,0.029335,0.306003,0.005234,0.274992,0.180604,0.033977,0.092145,0.005315,0.108668,0.084041,-0.196426,0.005412,0.152511,0.377736,0.109789,0.001107,-0.001151,0.232032,0.016940,0.269220,0.085616,
	0.213594,-0.255859,0.005477,0.016951,0.013837,0.106549,-0.048914,-0.019807,0.004739,0.060310,0.143082,-0.012454,0.021282,0.104815,-0.098765,0.176108,-0.044534,0.156741,-0.033621,0.049721,0.166432,0.256802,-0.001566,0.243995,0.481438,0.015185,0.001078,-0.270765,0.146181,0.002108,0.331763,0.409170,
	0.107879,-0.054797,0.143360,0.136080,0.104378,0.052220,0.168092,0.145124,0.129170,0.107321,0.056867,0.148927,0.111635,-0.000156,0.131866,0.053285,0.130777,0.099739,0.176203,0.116881,0.144652,0.133276,0.152867,0.060841,0.104779,0.101078,-0.003075,0.200283,0.031704,-0.066834,0.111753,-0.078643,
	-0.269991,-0.133525,-0.305215,-0.008598,-0.323185,-0.488788,-0.104865,-0.060944,-0.213030,-0.150512,-0.154173,-0.109883,-0.280690,0.006127,0.072966,-0.308520,-0.093520,-0.164231,-0.189291,-0.125064,-0.158411,0.280801,-0.204349,-0.341181,-0.135136,-0.324431,-0.000611,-0.284710,-0.112719,0.020539,-0.267103,-0.228871,
	-0.142413,0.051931,-0.027671,-0.158392,-0.033462,-0.228401,-0.104949,-0.070140,-0.072749,-0.076561,-0.090229,-0.080876,-0.083778,0.050319,-0.197976,-0.381393,-0.133705,-0.077906,-0.002845,-0.093064,-0.059945,0.278680,-0.045124,0.072067,-0.081212,-0.212920,0.000508,-0.194333,-0.151114,0.029144,-0.056412,-0.243927,
	-0.001387,-0.000591,0.000296,-0.000636,-0.000623,0.001138,-0.000452,0.000170,0.000262,0.000908,-0.001190,0.000122,-0.000337,-0.000728,0.001123,0.000954,-0.000988,-0.000064,-0.000100,-0.000224,0.000372,-0.000049,-0.000563,0.000156,0.001455,0.000001,0.002580,-0.000793,0.000044,-0.000078,-0.001512,0.000141,
	-0.004952,0.141239,-0.090877,0.146045,-0.252326,0.153142,0.235792,0.174682,-0.036599,-0.046496,0.095902,0.151850,0.256987,0.057769,0.196009,0.300393,0.168242,0.164796,0.098647,-0.004283,0.217634,0.305114,0.063809,-0.091340,-0.063279,-0.039313,0.001191,0.005094,0.052463,0.000484,0.293730,0.646884,
	0.340217,-0.065952,0.080019,0.029391,0.081350,0.079263,0.050763,0.060633,0.059080,0.048438,0.043304,0.047082,-0.093728,-0.109458,0.161114,0.190555,0.038047,0.057664,0.083142,0.041700,-0.026037,0.284778,0.066449,0.106262,-0.028708,0.147527,-0.001779,0.213286,0.212482,-0.017668,0.179344,-0.036077,
	0.000558,0.000259,0.000289,-0.002124,-0.001257,0.000380,-0.001183,-0.000073,0.000644,0.000268,-0.000054,0.000185,0.000312,0.000151,0.000595,-0.000560,0.000132,-0.000394,-0.000918,0.000912,0.000907,0.000778,0.001946,-0.001472,0.000433,-0.000079,0.001546,0.000570,-0.000186,-0.000545,-0.001025,-0.001453,
	0.000047,0.000494,0.000084,-0.002166,-0.000259,0.001787,-0.000105,0.000594,-0.000392,0.000057,0.001778,0.000554,-0.001611,-0.000097,0.000469,0.001947,-0.000671,0.001372,0.001027,-0.000811,0.002025,0.000441,0.000902,0.001690,-0.001152,-0.001896,-0.000423,-0.000474,0.000008,0.001052,0.001010,-0.001116,
	0.003751,0.001876,0.003273,0.001142,0.002164,0.000704,0.001826,0.001840,0.001065,0.000832,0.000689,0.001506,0.003362,-0.001263,0.004446,0.003252,-0.000744,0.000782,0.002599,0.000748,0.001122,0.000627,-0.000422,0.002700,0.001529,0.002935,0.000286,0.001110,0.003057,-0.000767,0.003585,0.003306,
	0.001157,-0.000416,-0.000977,0.000320,0.000705,0.000246,0.000899,0.001129,0.000993,0.000284,-0.000335,-0.000441,-0.001219,0.001964,0.000740,0.000105,0.000626,0.000292,-0.000777,0.000633,-0.000027,0.001113,0.001146,-0.001372,-0.000617,0.000208,-0.000947,-0.000213,0.000426,-0.000125,0.000659,0.001794,
	0.001654,0.000613,0.000969,-0.000319,0.000863,-0.001502,-0.001528,0.000192,-0.001187,0.002344,-0.000532,0.000973,0.000247,-0.001438,-0.000241,-0.001481,-0.000889,0.000180,-0.000580,0.000173,-0.000235,0.001503,-0.000203,-0.002665,0.000839,0.001662,-0.000514,0.001029,-0.000369,0.000877,0.000939,-0.000038,
	-0.001188,-0.000825,0.002389,-0.001389,-0.000499,0.000335,-0.000534,0.001960,-0.000330,-0.000521,0.000702,-0.001707,0.001605,-0.000285,-0.001602,0.000461,0.001732,-0.000332,-0.000346,-0.001036,-0.000887,-0.001361,-0.000339,-0.000839,0.001046,-0.000589,0.000489,-0.000418,0.000240,-0.000514,0.000338,-0.001676,
	0.049888,0.008750,0.159056,0.403718,0.180278,0.179801,0.163236,0.076298,0.243118,0.289223,0.254931,0.200574,0.305441,0.032275,0.210706,0.206636,0.298135,0.241958,0.035594,0.302644,0.198541,0.030074,0.129881,0.212767,0.015700,-0.121005,0.000612,0.174290,0.234028,-0.003800,0.347936,0.401344,
	-0.000072,0.000316,0.000692,0.001037,0.000536,-0.000304,0.002039,0.000343,0.000919,0.000518,0.000539,-0.000894,0.001463,-0.000982,0.000584,0.000760,-0.000253,-0.000071,0.000014,0.001193,-0.000524,0.000248,0.001572,0.000163,-0.000672,0.000160,0.000844,0.000048,0.001103,0.000386,-0.000426,-0.000733,
	-0.177355,-0.031593,-0.239754,-0.089233,-0.385016,-0.091836,0.015845,-0.000534,-0.208508,-0.244994,-0.163429,-0.050562,-0.081107,0.011006,-0.140568,-0.120851,-0.074125,-0.135623,-0.030750,-0.214386,-0.115009,-0.238185,-0.111171,-0.364595,-0.128932,-0.287515,-0.000696,-0.227185,-0.319931,0.014109,-0.080816,-0.280979,
	0.001124,-0.001106,0.000355,0.001726,-0.000661,-0.000318,0.001632,-0.000113,0.000399,-0.000747,0.000238,-0.001546,0.000420,0.001597,-0.001681,-0.001049,-0.000709,-0.000933,0.001664,-0.000988,0.000323,-0.000257,-0.000384,-0.000816,-0.000498,0.000749,0.000779,0.001529,0.001266,0.000693,0.000383,-0.001019,
	-0.223815,0.539741,-0.152774,0.049378,-0.155244,-0.176769,-0.063860,-0.032019,-0.073717,-0.016384,-0.146274,-0.005944,-0.296269,-0.020184,-0.103186,0.090871,0.066849,-0.074134,-0.098494,-0.050169,-0.169394,-0.611438,-0.129490,-0.229274,-0.326986,-0.475365,-0.000806,-0.060056,-0.073482,-0.006722,-0.011362,0.019602,
	0.003584,0.168378,0.096890,0.030529,0.077038,0.053550,0.054094,0.041796,0.068165,0.058051,-0.052894,0.058647,-0.084526,-0.073103,0.122302,0.056940,0.047701,0.083425,0.084166,0.046964,0.068875,-0.171712,0.078437,0.030675,0.011289,0.053027,-0.001883,-0.044658,0.007267,-0.020901,-0.003306,0.093149,
	-0.321069,0.100161,-0.134032,-0.109950,-0.199094,-0.301563,-0.149629,-0.318513,-0.142945,-0.196331,-0.026359,-0.179147,-0.233523,-0.031699,0.053132,-0.344708,-0.185914,-0.153179,-0.207424,-0.165804,-0.211952,-0.091532,-0.149899,-0.142444,-0.230952,-0.176551,0.002737,-0.081586,-0.331532,0.026552,-0.088197,-0.530627,
	-0.161673,-0.044581,-0.108304,0.041772,-0.040597,0.019367,-0.014347,0.082710,-0.029881,0.022773,-0.356105,0.056028,-0.391598,-0.064360,-0.239620,-0.094695,0.188647,-0.195178,-0.039404,-0.054139,-0.342344,-0.611781,-0.096344,-0.239618,-0.266034,-0.364006,0.000539,0.159573,-0.086740,-0.001150,-0.324784,0.175800,
	-0.000792,-0.000821,-0.001150,-0.000351,0.000198,-0.000102,0.001293,0.002173,-0.000825,-0.000478,0.001025,-0.001023,-0.003353,0.000322,-0.001219,0.000168,-0.000144,0.001485,-0.000369,-0.001973,0.001209,-0.000918,-0.000880,0.000410,0.001722,0.000085,0.001744,-0.001058,-0.000517,-0.000751,-0.001154,-0.000016,
	0.050561,0.145585,-0.079127,-0.091725,-0.089541,-0.037124,-0.123540,-0.166819,-0.093396,-0.090634,-0.072704,-0.119768,-0.262866,-0.043013,0.026986,-0.295038,-0.130651,-0.029485,-0.131163,-0.082765,-0.013735,-0.096741,-0.100438,-0.018436,-0.170287,-0.133037,0.001050,-0.220364,-0.146796,0.028344,-0.273913,-0.209164,
	0.210747,0.053704,-0.045486,-0.112124,-0.174518,-0.077966,0.016354,-0.031820,-0.113955,-0.147763,0.088962,-0.047967,-0.114371,0.071165,-0.146912,-0.366813,-0.155197,0.001943,0.048433,-0.108747,-0.065346,-0.432627,0.017411,0.023543,-0.710411,0.232797,0.000251,-0.278866,0.025497,0.009201,-0.115539,-0.663446,
	0.077162,0.399867,0.071437,0.018249,0.193429,-0.168813,-0.251924,-0.328874,0.070462,0.119262,0.360575,-0.183225,0.347025,0.039701,0.427270,0.218647,-0.242865,0.057081,-0.234936,0.144535,0.151815,0.476118,-0.068704,0.150056,0.467587,0.109615,0.001060,0.282951,0.056329,0.005772,0.171999,-0.148490,
	-0.331562,0.365134,-0.119539,-0.103211,-0.039949,-0.579642,-0.042811,0.046451,-0.113959,-0.096436,-0.037235,-0.092342,0.015164,0.000324,0.096816,-0.141707,-0.157819,-0.229252,-0.019685,-0.047551,-0.319607,-0.219553,-0.041505,-0.181002,-0.215912,-0.042836,0.000904,-0.023276,-0.203517,0.021699,-0.004130,-0.065955,
	0.062659,-0.000062,0.065195,0.036560,-0.053515,0.156549,0.190905,0.176119,0.027632,-0.012330,0.176168,0.121773,0.279053,-0.047405,-0.167379,0.487930,0.079992,0.146196,0.192046,0.006570,0.041757,0.066790,0.129136,0.108299,0.271603,0.177263,-0.000902,0.036100,0.164139,-0.014503,0.413439,-0.034881,
	0.000254,-0.001551,0.000477,-0.000853,0.001019,-0.001322,-0.000230,0.000690,-0.001428,0.000293,-0.000362,-0.001074,-0.000086,-0.000785,-0.000491,0.001196,0.000108,0.001251,-0.000499,0.000649,-0.000145,-0.000135,-0.000441,0.000469,0.000281,0.002686,-0.000921,0.000588,-0.001064,-0.000035,0.000357,-0.000001,
	-0.001299,0.000198,-0.001207,0.000511,0.001286,-0.001091,0.001894,0.000080,-0.000747,-0.001008,0.001553,-0.000410,-0.001516,0.000135,0.000047,-0.000060,-0.000683,0.000101,0.001103,-0.002069,-0.000216,-0.000852,-0.001462,-0.001258,-0.000490,-0.000601,-0.000408,0.001214,0.000914,-0.000358,0.001499,0.000361,
	0.000449,0.001478,0.000236,0.001955,-0.000047,0.001188,-0.000543,-0.000195,0.000669,0.000746,-0.000377,0.002766,-0.001473,-0.000582,0.001488,0.000533,0.001976,-0.000391,0.001512,-0.000702,0.001913,0.000133,0.000659,0.001297,0.000541,-0.001318,-0.001092,-0.000861,-0.002722,-0.001178,0.001358,-0.001257,
	-0.415945,0.171991,-0.021852,-0.172810,0.046477,0.106606,-0.110971,-0.096949,-0.053210,-0.104321,-0.071252,-0.107170,-0.225913,-0.001703,-0.098991,-0.160017,-0.049114,-0.245976,-0.075869,-0.132590,-0.395240,-0.059049,-0.090943,-0.039793,-0.378735,-0.293746,0.000528,-0.090798,-0.382583,0.060572,-0.557118,-0.106098,
	-0.019950,0.204285,-0.109726,-0.157457,-0.153815,-0.124843,-0.050558,-0.033249,-0.144194,-0.175654,-0.105039,-0.094324,-0.260718,-0.007983,-0.025238,0.037432,-0.147002,-0.165844,-0.011957,-0.162891,-0.225821,-0.092285,-0.073152,-0.245862,-0.005037,-0.057609,0.001132,-0.092001,-0.102435,0.020316,-0.288089,-0.581695,
	0.000257,0.000717,-0.000443,0.001641,-0.000943,0.000423,-0.001144,-0.000817,-0.001906,-0.000548,0.001054,0.000892,0.000153,-0.000118,0.000851,-0.000217,0.000401,0.001214,-0.000966,-0.000799,0.000336,0.000729,0.000548,0.000388,-0.000431,-0.000892,-0.000796,0.000092,0.000065,-0.001197,-0.002449,-0.000665,
	0.179132,-0.155891,-0.061998,0.102957,0.068324,0.092965,-0.002319,0.225865,0.036103,0.147721,-0.001634,0.098216,0.250168,0.148623,0.056789,0.331327,0.159225,0.075834,0.014168,0.073628,-0.040953,0.546249,-0.027350,-0.056720,0.312031,-0.019781,0.001016,0.113249,0.144966,-0.048734,0.179402,0.445659,
	-0.595050,0.131730,-0.021858,-0.056333,-0.074734,-0.388263,-0.119125,-0.222337,-0.045452,-0.045832,-0.398812,-0.093819,-0.257198,-0.021435,-0.518520,-0.306470,-0.073739,-0.080799,-0.132250,-0.057936,-0.316021,0.141499,-0.084712,0.002955,0.222633,-0.699565,-0.000065,-0.243954,-0.521551,0.023842,-0.200622,-0.512171,
	0.325984,0.043023,0.131596,0.121745,0.196922,0.299452,-0.022436,-0.054598,0.139391,0.169302,0.134470,0.039276,0.334565,0.006911,0.106662,0.270821,0.067206,0.062911,-0.025544,0.144883,0.116914,-0.010856,0.052073,0.169409,0.049313,0.123514,-0.001670,0.204445,0.192529,-0.023542,0.317151,0.246375,
	0.001379,0.000536,0.001146,-0.000300,-0.000232,0.000778,0.000145,-0.000098,0.000209,-0.002235,0.000607,0.000503,-0.000218,0.000770,-0.000233,0.000097,0.000103,-0.000572,0.000766,-0.000149,0.001305,-0.000308,0.000797,0.000550,0.001340,0.001998,-0.000749,-0.001348,0.000575,0.001706,0.000836,0.001092,
	-0.089317,-0.144886,-0.121413,-0.046296,-0.071899,-0.282421,-0.137248,-0.149241,-0.095190,-0.073542,-0.033088,-0.131229,-0.113840,0.031720,-0.007294,-0.307804,-0.106121,-0.156052,-0.179198,-0.051709,-0.082923,-0.210227,-0.128277,-0.189322,0.039460,-0.054528,-0.000680,0.004331,-0.021674,0.021966,-0.070665,-0.237958,
	-0.130668,-0.056274,-0.062738,-0.052036,-0.080105,-0.097720,-0.024185,-0.039050,-0.065847,-0.081353,-0.045111,-0.049591,-0.131935,-0.050226,-0.131866,-0.130886,-0.055031,-0.079309,-0.035495,-0.065319,-0.113872,-0.029572,-0.043846,-0.104762,-0.144591,-0.064404,-0.000964,-0.016180,-0.110836,0.000337,-0.137230,-0.232858,
	0.211085,0.040607,0.255366,0.179159,0.225811,0.305628,0.242730,0.206950,0.224619,0.180262,0.117599,0.226431,0.069371,0.072183,0.235989,0.370376,0.222724,0.229475,0.263075,0.176271,-0.020365,-0.247360,0.237650,0.326812,-0.122903,0.208727,-0.002709,0.501649,0.213855,-0.190983,-0.109704,-0.076564,
	-0.058545,0.123271,0.100210,0.171389,0.115925,0.211523,0.138774,0.077050,0.127977,0.112732,0.159169,0.114201,0.219194,-0.090579,0.203169,0.421972,0.143493,0.125775,0.067958,0.132281,0.229015,0.403299,0.106604,0.084163,0.191862,-0.142961,-0.000600,0.522255,0.031164,0.065072,0.058733,0.330303,
	-0.119378,-0.068726,0.131204,0.201499,0.179150,0.070085,0.136299,0.166106,0.176476,0.204615,0.183492,0.193094,0.212841,0.073710,0.566848,0.384273,0.189408,0.109591,0.162452,0.185691,0.187643,0.952531,0.148388,0.144702,0.488285,-0.333455,0.000106,0.119299,-0.182274,-0.025175,0.240349,0.273190,
	0.085594,0.116848,0.165162,0.146624,0.131956,0.082358,0.157256,0.144141,0.151839,0.140128,0.016952,0.157993,0.062821,-0.053778,-0.075142,0.046711,0.148425,0.109153,0.178576,0.133339,0.195650,0.094575,0.161017,0.053780,-0.057478,0.072988,-0.000913,0.076384,0.031884,-0.045646,0.182511,0.094247,
	-0.114136,0.205922,-0.149277,-0.064990,-0.111066,-0.009461,-0.157985,-0.238076,-0.120670,-0.123874,-0.126154,-0.156986,0.010206,0.066588,-0.207759,-0.060445,-0.076275,-0.246387,-0.248735,-0.117187,-0.262619,-0.754457,-0.180252,-0.102482,-0.236470,0.099112,-0.001878,-0.124634,-0.011020,0.030473,0.110154,-0.169819,
	0.283840,-0.076428,0.144140,0.086432,0.124621,0.149945,0.108871,0.102442,0.120764,0.105171,0.032312,0.113306,-0.048546,-0.212497,-0.119289,0.209565,0.096731,0.094956,0.145981,0.096052,0.098503,0.301244,0.126178,0.131410,-0.073436,0.094602,0.000026,0.160218,0.117813,-0.035558,0.243396,0.017023,
	-0.011620,-0.105910,0.039364,0.026575,0.006350,0.025701,0.077192,0.097654,0.023683,0.010818,-0.070259,0.057073,-0.064333,0.015977,0.200949,-0.027388,0.030849,0.018052,0.101947,0.016216,0.058686,0.021453,0.063211,-0.033547,0.271612,0.044550,-0.000069,0.148871,-0.000497,0.019031,-0.041505,-0.106594,
	0.321023,-0.258583,0.194439,-0.265685,0.093214,0.220860,0.097396,0.088406,0.007647,-0.116981,0.143727,-0.019314,0.157810,-0.009416,0.616461,-0.063087,-0.203725,0.104932,0.260676,-0.078107,0.314244,0.486763,0.194763,0.323603,0.654383,0.443075,-0.000704,-0.066648,-0.063014,0.025007,0.199610,0.110897,
	-0.200852,-0.234174,-0.016148,-0.100791,0.032797,0.016543,-0.091660,-0.024117,-0.040535,-0.035468,0.024115,-0.076156,-0.085211,0.111468,-0.049605,-0.121546,-0.090140,0.097525,-0.034242,-0.046589,-0.233551,-0.112342,-0.047946,0.193201,-0.242751,-0.168027,0.001322,-0.334197,0.034830,0.002874,-0.151860,-0.089413,
	-0.341344,0.120408,-0.087619,-0.201950,0.040621,-0.040672,-0.206230,0.000669,-0.109808,-0.051155,-0.147820,-0.190358,-0.055269,-0.000576,-0.022527,-0.526617,-0.294338,-0.033455,-0.085982,-0.029425,-0.282280,-0.377617,-0.099106,-0.024356,-0.446655,0.022962,-0.000325,0.449835,-0.052280,0.013087,-0.273428,-0.352932,
	-0.029155,-0.091543,0.085720,0.072891,0.076250,0.012884,0.118935,0.178662,0.078162,0.075713,0.030958,0.115689,0.076483,0.047275,-0.028902,-0.209356,0.099020,0.091736,0.155602,0.073553,0.059283,-0.018425,0.104895,0.005297,0.165353,0.008335,-0.001311,-0.166051,0.045389,-0.017679,0.137680,0.065459
};
const float WEIGHT_CONV3[32][25] = {
	-0.017336,0.025047,0.015386,0.009788,0.011461,-0.006692,-0.008543,-0.021832,-0.047790,0.010204,0.028391,-0.013373,0.091362,0.008199,0.006445,0.017852,-0.029815,-0.034236,-0.009508,-0.013271,-0.008126,0.014487,0.022586,-0.000407,-0.004062,
	0.014926,-0.012476,0.023364,-0.000195,0.012903,0.014618,-0.022226,0.039244,-0.011736,-0.016776,-0.008681,-0.034088,0.050252,0.000348,-0.019156,-0.010947,-0.032532,0.015810,-0.015689,-0.009749,0.023091,-0.000793,0.034468,0.002097,0.002529,
	0.019393,-0.001889,-0.008775,-0.016453,0.011383,0.008810,0.001982,0.024057,-0.006996,-0.008143,-0.007546,0.018014,0.047536,0.017919,-0.000055,-0.012056,-0.010090,0.007976,-0.027411,0.007987,0.013341,-0.014664,-0.012960,-0.007829,0.012357,
	-0.004445,-0.014845,0.000332,-0.009283,-0.014642,-0.003097,-0.017328,0.016758,-0.003727,-0.015477,-0.006617,0.031105,0.055385,0.001972,-0.020789,-0.024213,-0.007594,0.028725,0.004516,-0.004178,-0.001757,-0.016458,-0.001437,0.010407,0.008286,
	0.026940,0.003711,-0.013394,-0.023557,0.002506,0.004538,-0.002890,0.022511,-0.004442,-0.009881,-0.021044,0.004108,0.043843,0.028093,0.008316,-0.012466,-0.018418,0.011486,-0.021238,0.012321,0.011544,-0.017404,-0.014426,0.004782,0.027300,
	0.000388,0.001529,0.018398,0.019991,-0.005041,0.022115,-0.016438,-0.010642,-0.013958,-0.009551,-0.014440,-0.031565,0.091538,-0.033846,0.010842,-0.006464,-0.021666,-0.027825,-0.032170,0.018137,0.004988,0.012685,0.017766,0.005035,-0.007290,
	0.004222,-0.019610,-0.001060,-0.001692,0.020811,0.001028,-0.001990,0.018529,-0.014418,0.005243,-0.006937,0.022588,0.055850,-0.002995,-0.031903,-0.011034,0.004707,0.022403,-0.008436,-0.010290,0.022473,-0.003884,-0.005387,-0.016705,0.001619,
	0.005075,-0.023836,0.001328,0.006789,0.036240,-0.011907,-0.004654,0.018505,-0.015041,0.025619,-0.029413,0.001250,0.057651,0.007743,-0.026403,-0.008573,0.004460,0.029603,0.007711,-0.012030,0.036540,-0.000024,-0.005508,-0.016411,0.009674,
	0.012986,-0.004658,-0.004654,-0.015027,0.000044,0.003774,-0.005625,0.022858,-0.004065,-0.011334,-0.011166,0.018506,0.049471,0.014146,-0.006353,-0.016812,-0.011069,0.017044,-0.015981,0.003997,0.007684,-0.016087,-0.008251,0.001198,0.014147,
	0.008007,-0.005421,-0.003481,-0.013967,-0.006090,-0.003492,-0.012664,0.019767,-0.001814,-0.010231,-0.018499,0.015938,0.049772,0.018825,-0.001438,-0.022378,-0.014538,0.022053,-0.005847,0.002777,0.003788,-0.019044,-0.006694,0.009445,0.015116,
	0.008951,-0.011579,-0.038735,-0.025483,-0.004599,-0.001970,-0.002130,0.009468,-0.019498,-0.007289,-0.000578,0.033971,0.065135,0.014400,0.009403,0.003090,-0.012747,-0.004772,-0.016302,-0.000161,0.007957,0.004157,-0.004249,-0.005859,0.011295,
	0.005280,-0.012783,0.004320,-0.001114,0.013829,-0.002254,-0.005864,0.021335,-0.009018,0.001426,-0.014951,0.018751,0.055985,0.001995,-0.023530,-0.018295,-0.000045,0.026640,-0.005029,-0.006850,0.015366,-0.008070,-0.003010,-0.007212,0.005222,
	0.015199,-0.013413,-0.012688,-0.024853,-0.009625,-0.000886,-0.020510,0.006701,-0.022034,-0.003816,-0.005254,0.028309,0.078799,0.026918,0.030139,-0.000212,-0.018159,-0.011268,-0.034513,0.000650,0.012252,-0.003358,0.001479,-0.024534,0.013473,
	-0.010863,-0.002698,0.005345,-0.002522,-0.002485,-0.009839,-0.004190,0.004998,-0.001782,-0.000091,-0.005221,0.001328,0.041162,0.000952,0.000956,-0.008802,-0.001629,0.003383,-0.005412,-0.005065,-0.011300,-0.005161,-0.000082,-0.007155,-0.007084,
	0.011826,-0.008449,-0.029875,-0.006810,0.011964,-0.011421,-0.001599,0.013553,-0.022081,-0.010166,-0.028963,-0.003424,0.116581,0.027028,0.003456,0.004135,-0.007846,-0.015702,-0.057007,-0.009736,0.018808,0.014172,-0.012846,-0.014008,0.017488,
	-0.019966,-0.001977,0.009807,-0.005223,0.005744,0.021809,-0.014543,-0.011050,-0.023863,0.012490,0.021637,-0.049040,0.116216,-0.052713,0.013106,-0.001924,-0.024190,-0.034590,-0.009520,0.017527,-0.001654,0.007917,0.025195,0.005002,-0.018865,
	0.007992,-0.009994,0.013966,0.003404,0.004410,-0.001149,-0.012980,0.021291,-0.011861,-0.005680,-0.019348,0.017518,0.055704,-0.008234,-0.032455,-0.026378,-0.006007,0.034043,0.000609,-0.006098,0.010704,-0.010331,0.002518,0.000204,0.009159,
	-0.004621,-0.019019,-0.003954,-0.005757,-0.002875,-0.004101,-0.012110,0.017782,-0.009369,-0.010443,-0.011709,0.029355,0.061708,0.018863,0.000150,-0.017802,-0.013039,0.009691,-0.015811,-0.007243,0.011613,-0.008183,-0.004962,-0.008170,-0.011142,
	0.011911,-0.014209,-0.002595,0.000030,0.037273,-0.000414,0.005697,0.023486,-0.011684,0.016428,-0.014264,0.012375,0.055691,0.009218,-0.018465,-0.006381,0.006703,0.018198,-0.013824,-0.006020,0.030274,-0.003032,-0.010555,-0.021851,0.005098,
	0.004394,-0.010815,-0.010605,-0.016694,-0.007970,-0.002540,-0.011344,0.016261,-0.002784,-0.009935,-0.011821,0.021071,0.050107,0.018654,-0.004078,-0.018069,-0.012078,0.018704,-0.005000,0.000834,0.004592,-0.018925,-0.010357,0.008030,0.012890,
	-0.015275,-0.012636,-0.022159,-0.026578,-0.023842,-0.017456,-0.006273,0.024738,0.001596,-0.022227,0.002987,0.043246,0.053597,0.018533,0.003715,-0.003666,-0.000732,0.004134,-0.027597,-0.023045,-0.024330,-0.025037,0.005487,-0.005056,-0.019689,
	0.007059,-0.025711,-0.040492,-0.055859,-0.020695,-0.016486,-0.020269,0.065497,0.013797,0.015650,-0.043466,-0.001707,0.118190,0.019084,-0.034191,0.013736,0.003403,0.012773,-0.047303,-0.013992,-0.014096,-0.018174,-0.021662,-0.024148,0.002859,
	0.010290,-0.011209,-0.008267,-0.010408,0.018301,0.002568,0.002066,0.020338,-0.009703,0.001403,-0.008390,0.019171,0.051874,0.011865,-0.012415,-0.009265,-0.000851,0.013343,-0.017540,-0.002096,0.018685,-0.008901,-0.011406,-0.013634,0.005370,
	0.013065,0.006185,-0.019310,-0.024492,-0.001398,0.007391,-0.006627,0.017187,-0.016293,-0.026624,-0.020286,0.020050,0.053055,0.020338,0.020487,-0.027791,-0.017894,-0.010100,-0.041414,0.011034,0.008858,-0.006475,-0.006805,0.006449,-0.004294,
	-0.010343,-0.028723,-0.005398,-0.013740,-0.029326,-0.049815,-0.036355,-0.005591,-0.002278,-0.007203,0.018381,0.044325,0.094884,0.045083,0.004675,-0.012576,0.027413,0.015592,-0.041248,-0.024964,-0.048041,-0.045410,-0.004323,-0.029982,-0.014502,
	0.017746,-0.015992,-0.027176,-0.001693,0.039605,-0.008181,-0.009883,-0.030282,-0.058384,0.025399,0.009402,0.000357,0.059720,0.023040,-0.001712,0.043335,-0.039493,-0.031008,-0.012798,-0.014640,0.016878,0.007166,-0.007439,-0.037354,0.014149,
	-0.000005,-0.000007,-0.000008,-0.000007,-0.000005,-0.000006,-0.000006,-0.000004,-0.000006,-0.000006,-0.000006,-0.000004,0.031250,-0.000002,-0.000006,-0.000007,-0.000007,-0.000004,-0.000005,-0.000006,-0.000005,-0.000008,-0.000008,-0.000007,-0.000005,
	-0.003004,0.005922,0.005884,0.016727,0.002121,0.017586,-0.026440,-0.040100,-0.010032,0.022034,0.023732,-0.054970,0.092623,-0.033417,-0.016189,0.026427,-0.019933,-0.023361,-0.008614,0.013127,0.007284,0.001280,-0.021759,0.033992,0.003834,
	0.004238,-0.012754,-0.002555,0.012803,0.017022,-0.011831,-0.028892,-0.023674,-0.051561,0.024220,-0.012512,0.000260,0.071229,0.000429,0.000938,0.005799,-0.053384,-0.007370,0.004893,-0.012663,0.005965,0.000691,0.008226,-0.004451,0.012931,
	0.011624,0.004632,0.003152,0.001507,0.003079,0.011075,-0.001315,0.003126,-0.001638,-0.002492,0.003824,-0.003098,0.035595,-0.000828,-0.004475,0.001366,-0.005463,-0.002189,-0.003267,-0.000886,0.005186,0.005903,0.006654,0.004246,0.004695,
	0.004292,-0.012866,0.007738,-0.009288,0.004140,-0.018346,-0.023602,0.003682,-0.033829,-0.002571,-0.009621,0.042019,0.101327,0.010724,0.015642,-0.014492,-0.009955,-0.004158,-0.047724,0.001651,0.001547,-0.004367,-0.008580,-0.032517,0.013099,
	0.003602,-0.015348,-0.001601,-0.026466,-0.024156,-0.028922,-0.010726,0.035655,-0.014860,-0.024257,-0.072175,-0.014718,0.033047,0.007716,-0.031060,-0.016381,-0.045895,0.040367,-0.029738,-0.045123,0.001424,-0.024956,0.034193,-0.010747,-0.015423
};
const float BIASES_CONV1[64] = {
	-0.016607,
	-0.011107,
	-0.004831,
	-0.048674,
	-0.030041,
	-0.072972,
	-0.019459,
	-0.009738,
	0.695123,
	-0.073694,
	-0.013542,
	0.010336,
	-0.029562,
	0.018691,
	-0.021675,
	0.004089,
	-0.080331,
	-0.020802,
	-0.000250,
	0.015666,
	-0.024440,
	-0.000146,
	-0.000050,
	-0.001185,
	-0.000084,
	0.000000,
	-0.000376,
	0.029716,
	-0.000099,
	-0.020137,
	-0.000295,
	0.019286,
	0.005578,
	-0.070032,
	-0.024399,
	-0.000018,
	0.005100,
	-0.011212,
	0.004536,
	-0.024612,
	-0.022536,
	-0.000162,
	-0.000174,
	-0.000016,
	-0.065597,
	-0.006581,
	0.000007,
	0.025229,
	-0.001373,
	0.030352,
	0.000000,
	0.003286,
	0.005528,
	0.020767,
	-0.008491,
	0.026332,
	-0.046790,
	0.010330,
	-0.023649,
	0.027852,
	0.054407,
	-0.080683,
	-0.009447,
	-0.046632

};
const float BIASES_CONV2[32] = {
	0.123264,
	0.132708,
	0.070827,
	0.051456,
	0.058446,
	0.131532,
	0.080973,
	0.101532,
	0.055915,
	0.052282,
	-0.112129,
	0.074621,
	-0.103008,
	0.108175,
	0.156869,
	0.182258,
	0.06781,
	-0.027867,
	0.109575,
	0.034253,
	0.059884,
	-0.048186,
	0.074781,
	-0.073381,
	-0.022101,
	-0.049476,
	0.000162,
	0.167873,
	-0.086404,
	0.060469,
	-0.173375,
	0.2655
};
const float BIASES_CONV3 = 0.050377;
